booster[0]:
0:[f33<0.0305357] yes=1,no=2,missing=1
	1:[f35<0.0601052] yes=3,no=4,missing=3
		3:[f41<0.066515] yes=7,no=8,missing=7
			7:[f514<0.0864289] yes=13,no=14,missing=13
				13:[f853<0.10778] yes=23,no=24,missing=23
					23:[f557<0.0560018] yes=35,no=36,missing=35
						35:leaf=0.287423
						36:leaf=-0.123529
					24:leaf=-0.257143
				14:leaf=-0.27
			8:[f41<0.325157] yes=15,no=16,missing=15
				15:leaf=-0.276923
				16:[f41<0.464407] yes=25,no=26,missing=25
					25:[f41<0.37329] yes=37,no=38,missing=37
						37:leaf=-0
						38:leaf=0.18
					26:[f41<0.586611] yes=39,no=40,missing=39
						39:leaf=-0.18
						40:leaf=-0
		4:[f121<0.131249] yes=9,no=10,missing=9
			9:[f35<0.328236] yes=17,no=18,missing=17
				17:[f107<0.197355] yes=27,no=28,missing=27
					27:[f303<0.0963231] yes=41,no=42,missing=41
						41:leaf=-0.267857
						42:leaf=-0
					28:leaf=-0
				18:[f697<0.0714844] yes=29,no=30,missing=29
					29:[f34<0.111412] yes=43,no=44,missing=43
						43:leaf=0.214286
						44:leaf=-0.06
					30:leaf=-0.214286
			10:leaf=0.245455
	2:[f0<0.0460559] yes=5,no=6,missing=5
		5:[f197<0.0532375] yes=11,no=12,missing=11
			11:[f513<0.0499019] yes=19,no=20,missing=19
				19:[f752<0.0884562] yes=31,no=32,missing=31
					31:[f603<0.197906] yes=45,no=46,missing=45
						45:leaf=-0.0789474
						46:leaf=0.171429
					32:[f33<0.150182] yes=47,no=48,missing=47
						47:leaf=-0.15
						48:leaf=0.258621
				20:leaf=-0.266667
			12:[f33<0.531405] yes=21,no=22,missing=21
				21:[f185<0.166288] yes=33,no=34,missing=33
					33:leaf=-0.285366
					34:leaf=-0
				22:leaf=-0
		6:leaf=-0.291667
booster[1]:
0:[f33<0.0305357] yes=1,no=2,missing=1
	1:[f35<0.0601052] yes=3,no=4,missing=3
		3:[f41<0.066515] yes=7,no=8,missing=7
			7:[f514<0.0864289] yes=13,no=14,missing=13
				13:[f853<0.10778] yes=23,no=24,missing=23
					23:[f557<0.0560018] yes=35,no=36,missing=35
						35:leaf=-0.287423
						36:leaf=0.123529
					24:leaf=0.257143
				14:leaf=0.27
			8:[f41<0.325157] yes=15,no=16,missing=15
				15:leaf=0.276923
				16:[f41<0.464407] yes=25,no=26,missing=25
					25:[f41<0.37329] yes=37,no=38,missing=37
						37:leaf=-0
						38:leaf=-0.18
					26:[f41<0.586611] yes=39,no=40,missing=39
						39:leaf=0.18
						40:leaf=-0
		4:[f121<0.131249] yes=9,no=10,missing=9
			9:[f35<0.328236] yes=17,no=18,missing=17
				17:[f107<0.197355] yes=27,no=28,missing=27
					27:[f303<0.0963231] yes=41,no=42,missing=41
						41:leaf=0.267857
						42:leaf=-0
					28:leaf=-0
				18:[f697<0.0714844] yes=29,no=30,missing=29
					29:[f34<0.111412] yes=43,no=44,missing=43
						43:leaf=-0.214286
						44:leaf=0.06
					30:leaf=0.214286
			10:leaf=-0.245455
	2:[f0<0.0460559] yes=5,no=6,missing=5
		5:[f197<0.0532375] yes=11,no=12,missing=11
			11:[f513<0.0499019] yes=19,no=20,missing=19
				19:[f752<0.0884562] yes=31,no=32,missing=31
					31:[f603<0.197906] yes=45,no=46,missing=45
						45:leaf=0.0789474
						46:leaf=-0.171429
					32:[f33<0.150182] yes=47,no=48,missing=47
						47:leaf=0.15
						48:leaf=-0.258621
				20:leaf=0.266667
			12:[f33<0.531405] yes=21,no=22,missing=21
				21:[f185<0.166288] yes=33,no=34,missing=33
					33:leaf=0.285366
					34:leaf=-0
				22:leaf=-0
		6:leaf=0.291667
booster[2]:
0:[f33<0.0305357] yes=1,no=2,missing=1
	1:[f35<0.0601052] yes=3,no=4,missing=3
		3:[f513<0.0680198] yes=7,no=8,missing=7
			7:[f41<0.0886006] yes=13,no=14,missing=13
				13:[f366<0.101751] yes=23,no=24,missing=23
					23:[f37<0.0624098] yes=41,no=42,missing=41
						41:leaf=0.222149
						42:leaf=-0.247346
					24:[f366<0.340765] yes=43,no=44,missing=43
						43:leaf=-0.255214
						44:leaf=0.136031
				14:[f41<0.325157] yes=25,no=26,missing=25
					25:leaf=-0.212125
					26:[f41<0.464407] yes=45,no=46,missing=45
						45:leaf=0.17608
						46:leaf=-0.107131
			8:[f513<0.370804] yes=15,no=16,missing=15
				15:[f513<0.286622] yes=27,no=28,missing=27
					27:leaf=-0.279859
					28:[f513<0.314246] yes=47,no=48,missing=47
						47:leaf=0.0442463
						48:leaf=-0.148432
				16:[f513<0.45495] yes=29,no=30,missing=29
					29:leaf=0.178949
					30:leaf=-0.0309194
		4:[f121<0.131249] yes=9,no=10,missing=9
			9:[f35<0.318506] yes=17,no=18,missing=17
				17:[f107<0.197355] yes=31,no=32,missing=31
					31:[f303<0.0963231] yes=49,no=50,missing=49
						49:leaf=-0.215646
						50:leaf=-0
					32:leaf=-0
				18:[f34<0.0525833] yes=33,no=34,missing=33
					33:[f35<0.328236] yes=51,no=52,missing=51
						51:leaf=-0.0134594
						52:leaf=0.13893
					34:[f34<0.266684] yes=53,no=54,missing=53
						53:leaf=-0.178616
						54:leaf=-0.0405644
			10:leaf=0.195658
	2:[f0<0.0460559] yes=5,no=6,missing=5
		5:[f197<0.0532375] yes=11,no=12,missing=11
			11:[f697<0.0696145] yes=19,no=20,missing=19
				19:[f35<0.0445161] yes=35,no=36,missing=35
					35:[f603<0.208512] yes=55,no=56,missing=55
						55:leaf=0.0348104
						56:leaf=0.233757
					36:[f35<0.247885] yes=57,no=58,missing=57
						57:leaf=-0.24084
						58:leaf=-0.0354263
				20:[f107<0.0545441] yes=37,no=38,missing=37
					37:leaf=-0.250789
					38:leaf=-0.0508749
			12:[f33<0.531405] yes=21,no=22,missing=21
				21:[f185<0.166288] yes=39,no=40,missing=39
					39:leaf=-0.222407
					40:leaf=-0
				22:leaf=-0
		6:leaf=-0.226663
booster[3]:
0:[f33<0.0305357] yes=1,no=2,missing=1
	1:[f35<0.0601052] yes=3,no=4,missing=3
		3:[f513<0.0680198] yes=7,no=8,missing=7
			7:[f41<0.0886006] yes=13,no=14,missing=13
				13:[f366<0.101751] yes=23,no=24,missing=23
					23:[f37<0.0624098] yes=41,no=42,missing=41
						41:leaf=-0.222149
						42:leaf=0.247346
					24:[f366<0.340765] yes=43,no=44,missing=43
						43:leaf=0.255214
						44:leaf=-0.136031
				14:[f41<0.325157] yes=25,no=26,missing=25
					25:leaf=0.212125
					26:[f41<0.464407] yes=45,no=46,missing=45
						45:leaf=-0.17608
						46:leaf=0.107131
			8:[f513<0.370804] yes=15,no=16,missing=15
				15:[f513<0.286622] yes=27,no=28,missing=27
					27:leaf=0.279859
					28:[f513<0.314246] yes=47,no=48,missing=47
						47:leaf=-0.0442463
						48:leaf=0.148432
				16:[f513<0.45495] yes=29,no=30,missing=29
					29:leaf=-0.178949
					30:leaf=0.0309194
		4:[f121<0.131249] yes=9,no=10,missing=9
			9:[f35<0.318506] yes=17,no=18,missing=17
				17:[f107<0.197355] yes=31,no=32,missing=31
					31:[f303<0.0963231] yes=49,no=50,missing=49
						49:leaf=0.215646
						50:leaf=-0
					32:leaf=-0
				18:[f34<0.0525833] yes=33,no=34,missing=33
					33:[f35<0.328236] yes=51,no=52,missing=51
						51:leaf=0.0134594
						52:leaf=-0.13893
					34:[f34<0.266684] yes=53,no=54,missing=53
						53:leaf=0.178616
						54:leaf=0.0405644
			10:leaf=-0.195658
	2:[f0<0.0460559] yes=5,no=6,missing=5
		5:[f197<0.0532375] yes=11,no=12,missing=11
			11:[f697<0.0696145] yes=19,no=20,missing=19
				19:[f35<0.0445161] yes=35,no=36,missing=35
					35:[f603<0.208512] yes=55,no=56,missing=55
						55:leaf=-0.0348104
						56:leaf=-0.233757
					36:[f35<0.247885] yes=57,no=58,missing=57
						57:leaf=0.24084
						58:leaf=0.0354263
				20:[f107<0.0545441] yes=37,no=38,missing=37
					37:leaf=0.250789
					38:leaf=0.0508749
			12:[f33<0.531405] yes=21,no=22,missing=21
				21:[f185<0.166288] yes=39,no=40,missing=39
					39:leaf=0.222407
					40:leaf=-0
				22:leaf=-0
		6:leaf=0.226663
booster[4]:
0:[f33<0.0305357] yes=1,no=2,missing=1
	1:[f35<0.0601052] yes=3,no=4,missing=3
		3:[f514<0.0864289] yes=7,no=8,missing=7
			7:[f36<0.0572222] yes=13,no=14,missing=13
				13:[f42<0.377133] yes=19,no=20,missing=19
					19:[f670<0.0565946] yes=29,no=30,missing=29
						29:leaf=0.190319
						30:leaf=-0.139264
					20:leaf=-0.413905
				14:[f36<0.263666] yes=21,no=22,missing=21
					21:leaf=-0.342815
					22:[f164<0.0503949] yes=31,no=32,missing=31
						31:leaf=0.129677
						32:leaf=-0.231057
			8:leaf=-0.215541
		4:[f121<0.131249] yes=9,no=10,missing=9
			9:[f35<0.298366] yes=15,no=16,missing=15
				15:[f107<0.197355] yes=23,no=24,missing=23
					23:[f303<0.0963231] yes=33,no=34,missing=33
						33:leaf=-0.19588
						34:leaf=-0
					24:leaf=-0
				16:[f34<0.0525833] yes=25,no=26,missing=25
					25:[f947<0.0860678] yes=35,no=36,missing=35
						35:leaf=0.121408
						36:leaf=-0.140006
					26:[f34<0.288433] yes=37,no=38,missing=37
						37:leaf=-0.16335
						38:leaf=-0.033557
			10:leaf=0.16721
	2:[f0<0.0460559] yes=5,no=6,missing=5
		5:[f33<0.169702] yes=11,no=12,missing=11
			11:leaf=-0.214947
			12:[f947<0.0762232] yes=17,no=18,missing=17
				17:[f311<0.0507862] yes=27,no=28,missing=27
					27:[f41<0.0785138] yes=39,no=40,missing=39
						39:leaf=0.0897472
						40:leaf=-0.202689
					28:[f34<0.256427] yes=41,no=42,missing=41
						41:leaf=-0.19333
						42:leaf=0.0864935
				18:leaf=-0.214601
		6:leaf=-0.195953
booster[5]:
0:[f33<0.0305357] yes=1,no=2,missing=1
	1:[f35<0.0601052] yes=3,no=4,missing=3
		3:[f514<0.0864289] yes=7,no=8,missing=7
			7:[f36<0.0572222] yes=13,no=14,missing=13
				13:[f42<0.377133] yes=19,no=20,missing=19
					19:[f670<0.0565946] yes=29,no=30,missing=29
						29:leaf=-0.190319
						30:leaf=0.139264
					20:leaf=0.413905
				14:[f36<0.263666] yes=21,no=22,missing=21
					21:leaf=0.342815
					22:[f164<0.0503949] yes=31,no=32,missing=31
						31:leaf=-0.129677
						32:leaf=0.231057
			8:leaf=0.215541
		4:[f121<0.131249] yes=9,no=10,missing=9
			9:[f35<0.298366] yes=15,no=16,missing=15
				15:[f107<0.197355] yes=23,no=24,missing=23
					23:[f303<0.0963231] yes=33,no=34,missing=33
						33:leaf=0.19588
						34:leaf=-0
					24:leaf=-0
				16:[f34<0.0525833] yes=25,no=26,missing=25
					25:[f947<0.0860678] yes=35,no=36,missing=35
						35:leaf=-0.121408
						36:leaf=0.140006
					26:[f34<0.288433] yes=37,no=38,missing=37
						37:leaf=0.16335
						38:leaf=0.033557
			10:leaf=-0.16721
	2:[f0<0.0460559] yes=5,no=6,missing=5
		5:[f33<0.169702] yes=11,no=12,missing=11
			11:leaf=0.214947
			12:[f947<0.0762232] yes=17,no=18,missing=17
				17:[f311<0.0507862] yes=27,no=28,missing=27
					27:[f41<0.0785138] yes=39,no=40,missing=39
						39:leaf=-0.0897472
						40:leaf=0.202689
					28:[f34<0.256427] yes=41,no=42,missing=41
						41:leaf=0.19333
						42:leaf=-0.0864935
				18:leaf=0.214601
		6:leaf=0.195953
booster[6]:
0:[f33<0.0305357] yes=1,no=2,missing=1
	1:[f41<0.066515] yes=3,no=4,missing=3
		3:[f697<0.0596294] yes=7,no=8,missing=7
			7:[f366<0.082649] yes=13,no=14,missing=13
				13:[f36<0.0629064] yes=23,no=24,missing=23
					23:[f514<0.0856415] yes=37,no=38,missing=37
						37:leaf=0.171183
						38:leaf=-0.17934
					24:[f36<0.263666] yes=39,no=40,missing=39
						39:leaf=-0.211915
						40:leaf=0.0530148
				14:[f366<0.340765] yes=25,no=26,missing=25
					25:leaf=-0.224815
					26:leaf=0.0994126
			8:[f697<0.220042] yes=15,no=16,missing=15
				15:[f121<0.044645] yes=27,no=28,missing=27
					27:leaf=-0.266283
					28:leaf=-0.0378138
				16:[f636<0.0567353] yes=29,no=30,missing=29
					29:[f947<0.13875] yes=41,no=42,missing=41
						41:leaf=0.166658
						42:leaf=-0.127296
					30:leaf=-0.298912
		4:[f840<0.329009] yes=9,no=10,missing=9
			9:[f41<0.408517] yes=17,no=18,missing=17
				17:leaf=-0.204888
				18:leaf=-0.0508053
			10:leaf=0.0178562
	2:[f0<0.0460559] yes=5,no=6,missing=5
		5:[f197<0.0532375] yes=11,no=12,missing=11
			11:[f697<0.0696145] yes=19,no=20,missing=19
				19:[f33<0.200535] yes=31,no=32,missing=31
					31:[f34<0.172746] yes=43,no=44,missing=43
						43:leaf=-0.182857
						44:leaf=0.0640653
					32:[f43<0.0778403] yes=45,no=46,missing=45
						45:leaf=0.0824554
						46:leaf=-0.17057
				20:[f33<0.498904] yes=33,no=34,missing=33
					33:leaf=-0.199338
					34:leaf=-0.0164894
			12:[f121<0.102326] yes=21,no=22,missing=21
				21:[f697<0.188774] yes=35,no=36,missing=35
					35:leaf=-0.185922
					36:leaf=-0.0191671
				22:leaf=0.0099027
		6:leaf=-0.177804
booster[7]:
0:[f33<0.0305357] yes=1,no=2,missing=1
	1:[f41<0.066515] yes=3,no=4,missing=3
		3:[f697<0.0596294] yes=7,no=8,missing=7
			7:[f366<0.082649] yes=13,no=14,missing=13
				13:[f36<0.0629064] yes=23,no=24,missing=23
					23:[f514<0.0856415] yes=37,no=38,missing=37
						37:leaf=-0.171183
						38:leaf=0.17934
					24:[f36<0.263666] yes=39,no=40,missing=39
						39:leaf=0.211915
						40:leaf=-0.0530149
				14:[f366<0.340765] yes=25,no=26,missing=25
					25:leaf=0.224815
					26:leaf=-0.0994126
			8:[f697<0.220042] yes=15,no=16,missing=15
				15:[f121<0.044645] yes=27,no=28,missing=27
					27:leaf=0.266283
					28:leaf=0.0378138
				16:[f636<0.0567353] yes=29,no=30,missing=29
					29:[f947<0.13875] yes=41,no=42,missing=41
						41:leaf=-0.166658
						42:leaf=0.127296
					30:leaf=0.298912
		4:[f840<0.329009] yes=9,no=10,missing=9
			9:[f41<0.408517] yes=17,no=18,missing=17
				17:leaf=0.204888
				18:leaf=0.0508053
			10:leaf=-0.0178562
	2:[f0<0.0460559] yes=5,no=6,missing=5
		5:[f197<0.0532375] yes=11,no=12,missing=11
			11:[f697<0.0696145] yes=19,no=20,missing=19
				19:[f33<0.200535] yes=31,no=32,missing=31
					31:[f34<0.172746] yes=43,no=44,missing=43
						43:leaf=0.182857
						44:leaf=-0.0640653
					32:[f43<0.0778403] yes=45,no=46,missing=45
						45:leaf=-0.0824554
						46:leaf=0.17057
				20:[f33<0.498904] yes=33,no=34,missing=33
					33:leaf=0.199338
					34:leaf=0.0164894
			12:[f121<0.102326] yes=21,no=22,missing=21
				21:[f697<0.188774] yes=35,no=36,missing=35
					35:leaf=0.185922
					36:leaf=0.0191671
				22:leaf=-0.00990269
		6:leaf=0.177804
booster[8]:
0:[f34<0.0310833] yes=1,no=2,missing=1
	1:[f41<0.0610411] yes=3,no=4,missing=3
		3:[f697<0.0696145] yes=7,no=8,missing=7
			7:[f164<0.059359] yes=15,no=16,missing=15
				15:[f513<0.0499019] yes=25,no=26,missing=25
					25:[f42<0.377133] yes=37,no=38,missing=37
						37:leaf=0.156753
						38:leaf=-0.310577
					26:[f513<0.296645] yes=39,no=40,missing=39
						39:leaf=-0.208582
						40:leaf=0.0262966
				16:leaf=-0.222024
			8:[f697<0.211656] yes=17,no=18,missing=17
				17:[f121<0.0444183] yes=27,no=28,missing=27
					27:leaf=-0.224338
					28:leaf=-0.0410924
				18:[f636<0.0567353] yes=29,no=30,missing=29
					29:[f33<0.120486] yes=41,no=42,missing=41
						41:leaf=0.121964
						42:leaf=-0.134534
					30:leaf=-0.200246
		4:[f895<0.236257] yes=9,no=10,missing=9
			9:[f41<0.391776] yes=19,no=20,missing=19
				19:leaf=-0.187687
				20:[f41<0.481872] yes=31,no=32,missing=31
					31:leaf=0.00723232
					32:leaf=-0.0821772
			10:leaf=0.0507141
	2:[f34<0.172746] yes=5,no=6,missing=5
		5:[f478<0.154108] yes=11,no=12,missing=11
			11:leaf=-0.197159
			12:leaf=-0.0406968
		6:[f197<0.0241399] yes=13,no=14,missing=13
			13:[f399<0.0910811] yes=21,no=22,missing=21
				21:[f513<0.0680198] yes=33,no=34,missing=33
					33:[f670<0.0922543] yes=43,no=44,missing=43
						43:leaf=0.0797513
						44:leaf=-0.164032
					34:leaf=-0.160188
				22:leaf=-0.194936
			14:[f35<0.290679] yes=23,no=24,missing=23
				23:[f752<0.0915467] yes=35,no=36,missing=35
					35:leaf=-0.245746
					36:leaf=-0.0485823
				24:leaf=0.0194157
booster[9]:
0:[f34<0.0310833] yes=1,no=2,missing=1
	1:[f41<0.0610411] yes=3,no=4,missing=3
		3:[f697<0.0696145] yes=7,no=8,missing=7
			7:[f164<0.059359] yes=15,no=16,missing=15
				15:[f513<0.0499019] yes=25,no=26,missing=25
					25:[f42<0.377133] yes=37,no=38,missing=37
						37:leaf=-0.156753
						38:leaf=0.310577
					26:[f513<0.296645] yes=39,no=40,missing=39
						39:leaf=0.208582
						40:leaf=-0.0262966
				16:leaf=0.222024
			8:[f697<0.211656] yes=17,no=18,missing=17
				17:[f121<0.0444183] yes=27,no=28,missing=27
					27:leaf=0.224338
					28:leaf=0.0410924
				18:[f636<0.0567353] yes=29,no=30,missing=29
					29:[f33<0.120486] yes=41,no=42,missing=41
						41:leaf=-0.121964
						42:leaf=0.134534
					30:leaf=0.200246
		4:[f895<0.236257] yes=9,no=10,missing=9
			9:[f41<0.391776] yes=19,no=20,missing=19
				19:leaf=0.187687
				20:[f41<0.481872] yes=31,no=32,missing=31
					31:leaf=-0.00723233
					32:leaf=0.0821772
			10:leaf=-0.0507141
	2:[f34<0.172746] yes=5,no=6,missing=5
		5:[f478<0.154108] yes=11,no=12,missing=11
			11:leaf=0.197159
			12:leaf=0.0406968
		6:[f197<0.0241399] yes=13,no=14,missing=13
			13:[f399<0.0910811] yes=21,no=22,missing=21
				21:[f513<0.0680198] yes=33,no=34,missing=33
					33:[f670<0.0922543] yes=43,no=44,missing=43
						43:leaf=-0.0797513
						44:leaf=0.164032
					34:leaf=0.160188
				22:leaf=0.194936
			14:[f35<0.290679] yes=23,no=24,missing=23
				23:[f752<0.0915467] yes=35,no=36,missing=35
					35:leaf=0.245746
					36:leaf=0.0485823
				24:leaf=-0.0194157
booster[10]:
0:[f33<0.0305357] yes=1,no=2,missing=1
	1:[f35<0.0601052] yes=3,no=4,missing=3
		3:[f513<0.0680198] yes=7,no=8,missing=7
			7:[f509<0.0831251] yes=13,no=14,missing=13
				13:[f0<0.113855] yes=23,no=24,missing=23
					23:[f782<0.136366] yes=41,no=42,missing=41
						41:leaf=0.142168
						42:leaf=-0.386673
					24:leaf=-0.380708
				14:[f509<0.320419] yes=25,no=26,missing=25
					25:leaf=-0.367124
					26:leaf=-0.0338705
			8:[f513<0.370804] yes=15,no=16,missing=15
				15:[f513<0.286622] yes=27,no=28,missing=27
					27:leaf=-0.205426
					28:[f513<0.34478] yes=43,no=44,missing=43
						43:leaf=-0.00668274
						44:leaf=-0.12567
				16:[f513<0.45495] yes=29,no=30,missing=29
					29:leaf=0.114301
					30:leaf=-0.0319458
		4:[f121<0.131249] yes=9,no=10,missing=9
			9:[f35<0.318506] yes=17,no=18,missing=17
				17:[f35<0.298366] yes=31,no=32,missing=31
					31:leaf=-0.159652
					32:leaf=-0.0648108
				18:[f478<0.069261] yes=33,no=34,missing=33
					33:[f35<0.431404] yes=45,no=46,missing=45
						45:leaf=0.0534738
						46:leaf=-0.0650599
					34:leaf=-0.135741
			10:leaf=0.118449
	2:[f335<0.195182] yes=5,no=6,missing=5
		5:[f603<0.196879] yes=11,no=12,missing=11
			11:[f752<0.107083] yes=19,no=20,missing=19
				19:[f102<0.2681] yes=35,no=36,missing=35
					35:[f240<0.198987] yes=47,no=48,missing=47
						47:leaf=-0.140205
						48:leaf=0.0967716
					36:leaf=0.14936
				20:[f513<0.0499019] yes=37,no=38,missing=37
					37:[f197<0.0617889] yes=49,no=50,missing=49
						49:leaf=0.140265
						50:leaf=-0.11014
					38:leaf=-0.122086
			12:[f41<0.116212] yes=21,no=22,missing=21
				21:[f645<0.105781] yes=39,no=40,missing=39
					39:[f35<0.0789806] yes=51,no=52,missing=51
						51:leaf=0.136837
						52:leaf=-0.0605721
					40:leaf=-0.107857
				22:leaf=-0.118458
		6:leaf=0.176185
booster[11]:
0:[f33<0.0305357] yes=1,no=2,missing=1
	1:[f35<0.0601052] yes=3,no=4,missing=3
		3:[f513<0.0680198] yes=7,no=8,missing=7
			7:[f509<0.0831251] yes=13,no=14,missing=13
				13:[f0<0.113855] yes=23,no=24,missing=23
					23:[f782<0.136366] yes=41,no=42,missing=41
						41:leaf=-0.142168
						42:leaf=0.386673
					24:leaf=0.380708
				14:[f509<0.320419] yes=25,no=26,missing=25
					25:leaf=0.367124
					26:leaf=0.0338705
			8:[f513<0.370804] yes=15,no=16,missing=15
				15:[f513<0.286622] yes=27,no=28,missing=27
					27:leaf=0.205426
					28:[f513<0.34478] yes=43,no=44,missing=43
						43:leaf=0.00668273
						44:leaf=0.12567
				16:[f513<0.45495] yes=29,no=30,missing=29
					29:leaf=-0.114301
					30:leaf=0.0319458
		4:[f121<0.131249] yes=9,no=10,missing=9
			9:[f35<0.318506] yes=17,no=18,missing=17
				17:[f35<0.298366] yes=31,no=32,missing=31
					31:leaf=0.159652
					32:leaf=0.0648108
				18:[f478<0.069261] yes=33,no=34,missing=33
					33:[f35<0.431404] yes=45,no=46,missing=45
						45:leaf=-0.0534738
						46:leaf=0.0650599
					34:leaf=0.135741
			10:leaf=-0.118449
	2:[f335<0.195182] yes=5,no=6,missing=5
		5:[f603<0.196879] yes=11,no=12,missing=11
			11:[f752<0.107083] yes=19,no=20,missing=19
				19:[f102<0.2681] yes=35,no=36,missing=35
					35:[f240<0.198987] yes=47,no=48,missing=47
						47:leaf=0.140205
						48:leaf=-0.0967716
					36:leaf=-0.14936
				20:[f513<0.0499019] yes=37,no=38,missing=37
					37:[f197<0.0617889] yes=49,no=50,missing=49
						49:leaf=-0.140265
						50:leaf=0.11014
					38:leaf=0.122086
			12:[f41<0.116212] yes=21,no=22,missing=21
				21:[f645<0.105781] yes=39,no=40,missing=39
					39:[f35<0.0789806] yes=51,no=52,missing=51
						51:leaf=-0.136837
						52:leaf=0.0605721
					40:leaf=0.107857
				22:leaf=0.118458
		6:leaf=-0.176185
booster[12]:
0:[f34<0.0310833] yes=1,no=2,missing=1
	1:[f36<0.0448261] yes=3,no=4,missing=3
		3:[f41<0.0785752] yes=7,no=8,missing=7
			7:[f853<0.10778] yes=15,no=16,missing=15
				15:[f697<0.0696145] yes=29,no=30,missing=29
					29:[f42<0.377133] yes=41,no=42,missing=41
						41:leaf=0.136663
						42:leaf=-0.258162
					30:[f697<0.220042] yes=43,no=44,missing=43
						43:leaf=-0.169082
						44:leaf=-0.00272361
				16:leaf=-0.205567
			8:[f895<0.109276] yes=17,no=18,missing=17
				17:[f41<0.391776] yes=31,no=32,missing=31
					31:leaf=-0.170834
					32:[f41<0.481872] yes=45,no=46,missing=45
						45:leaf=-0.0175671
						46:leaf=-0.0899485
				18:leaf=0.0279283
		4:[f36<0.263666] yes=9,no=10,missing=9
			9:leaf=-0.204409
			10:[f197<0.0797538] yes=19,no=20,missing=19
				19:[f35<0.0445161] yes=33,no=34,missing=33
					33:[f33<0.215707] yes=47,no=48,missing=47
						47:leaf=0.0246221
						48:leaf=0.143857
					34:leaf=-0.101896
				20:leaf=-0.145457
	2:[f34<0.211378] yes=5,no=6,missing=5
		5:[f603<0.183771] yes=11,no=12,missing=11
			11:[f90<0.0548846] yes=21,no=22,missing=21
				21:[f962<0.0446117] yes=35,no=36,missing=35
					35:[f36<0.311519] yes=49,no=50,missing=49
						49:leaf=-0.200899
						50:leaf=-0.0406021
					36:leaf=-0.038251
				22:leaf=-0.0175993
			12:[f33<0.269796] yes=23,no=24,missing=23
				23:leaf=0.0629252
				24:leaf=-0.0310932
		6:[f197<0.0241399] yes=13,no=14,missing=13
			13:[f35<0.159832] yes=25,no=26,missing=25
				25:[f164<0.100633] yes=37,no=38,missing=37
					37:[f33<0.309055] yes=51,no=52,missing=51
						51:leaf=0.101529
						52:leaf=-0.057017
					38:leaf=-0.171924
				26:[f35<0.357232] yes=39,no=40,missing=39
					39:leaf=-0.169898
					40:leaf=0.00396716
			14:[f197<0.347906] yes=27,no=28,missing=27
				27:leaf=-0.229859
				28:leaf=-0.0289206
booster[13]:
0:[f34<0.0310833] yes=1,no=2,missing=1
	1:[f36<0.0448261] yes=3,no=4,missing=3
		3:[f41<0.0785752] yes=7,no=8,missing=7
			7:[f853<0.10778] yes=15,no=16,missing=15
				15:[f697<0.0696145] yes=29,no=30,missing=29
					29:[f42<0.377133] yes=41,no=42,missing=41
						41:leaf=-0.136663
						42:leaf=0.258162
					30:[f697<0.220042] yes=43,no=44,missing=43
						43:leaf=0.169082
						44:leaf=0.00272363
				16:leaf=0.205567
			8:[f895<0.109276] yes=17,no=18,missing=17
				17:[f41<0.391776] yes=31,no=32,missing=31
					31:leaf=0.170834
					32:[f41<0.481872] yes=45,no=46,missing=45
						45:leaf=0.017567
						46:leaf=0.0899485
				18:leaf=-0.0279283
		4:[f36<0.263666] yes=9,no=10,missing=9
			9:leaf=0.204409
			10:[f197<0.0797538] yes=19,no=20,missing=19
				19:[f35<0.0445161] yes=33,no=34,missing=33
					33:[f33<0.215707] yes=47,no=48,missing=47
						47:leaf=-0.024622
						48:leaf=-0.143857
					34:leaf=0.101896
				20:leaf=0.145457
	2:[f34<0.211378] yes=5,no=6,missing=5
		5:[f603<0.183771] yes=11,no=12,missing=11
			11:[f90<0.0548846] yes=21,no=22,missing=21
				21:[f962<0.0446117] yes=35,no=36,missing=35
					35:[f36<0.311519] yes=49,no=50,missing=49
						49:leaf=0.200899
						50:leaf=0.0406022
					36:leaf=0.038251
				22:leaf=0.0175993
			12:[f33<0.269796] yes=23,no=24,missing=23
				23:leaf=-0.0629252
				24:leaf=0.0310932
		6:[f197<0.0241399] yes=13,no=14,missing=13
			13:[f35<0.159832] yes=25,no=26,missing=25
				25:[f164<0.100633] yes=37,no=38,missing=37
					37:[f33<0.309055] yes=51,no=52,missing=51
						51:leaf=-0.101529
						52:leaf=0.057017
					38:leaf=0.171924
				26:[f35<0.357232] yes=39,no=40,missing=39
					39:leaf=0.169898
					40:leaf=-0.00396717
			14:[f197<0.347906] yes=27,no=28,missing=27
				27:leaf=0.229858
				28:leaf=0.0289206
booster[14]:
0:[f34<0.0310833] yes=1,no=2,missing=1
	1:[f35<0.0445161] yes=3,no=4,missing=3
		3:[f0<0.0743327] yes=7,no=8,missing=7
			7:[f514<0.0814893] yes=13,no=14,missing=13
				13:[f199<0.113565] yes=25,no=26,missing=25
					25:[f990<0.0712996] yes=37,no=38,missing=37
						37:leaf=0.120864
						38:leaf=-0.290678
					26:leaf=-0.333765
				14:leaf=-0.192267
			8:[f0<0.460218] yes=15,no=16,missing=15
				15:leaf=-0.142781
				16:leaf=-0.321328
		4:[f35<0.290335] yes=9,no=10,missing=9
			9:[f121<0.0994888] yes=17,no=18,missing=17
				17:[f107<0.196049] yes=27,no=28,missing=27
					27:leaf=-0.180453
					28:leaf=-0.0527611
				18:leaf=0.0739316
			10:[f35<0.456508] yes=19,no=20,missing=19
				19:[f35<0.328236] yes=29,no=30,missing=29
					29:[f35<0.314386] yes=39,no=40,missing=39
						39:leaf=0.0509002
						40:leaf=-0.0421693
					30:leaf=0.0946075
				20:leaf=-0.0996108
	2:[f34<0.455408] yes=5,no=6,missing=5
		5:[f603<0.192323] yes=11,no=12,missing=11
			11:[f752<0.127104] yes=21,no=22,missing=21
				21:[f364<0.147201] yes=31,no=32,missing=31
					31:[f249<0.228182] yes=41,no=42,missing=41
						41:leaf=-0.156142
						42:leaf=0.0116228
					32:leaf=0.0761826
				22:[f34<0.254119] yes=33,no=34,missing=33
					33:[f34<0.163227] yes=43,no=44,missing=43
						43:leaf=-0.0952778
						44:leaf=0.00364678
					34:leaf=0.106164
			12:[f33<0.49976] yes=23,no=24,missing=23
				23:[f33<0.398718] yes=35,no=36,missing=35
					35:[f34<0.26447] yes=45,no=46,missing=45
						45:leaf=-0.00704864
						46:leaf=0.112515
					36:leaf=-0.0927197
				24:leaf=0.119385
		6:leaf=0.138979
booster[15]:
0:[f34<0.0310833] yes=1,no=2,missing=1
	1:[f35<0.0445161] yes=3,no=4,missing=3
		3:[f0<0.0743327] yes=7,no=8,missing=7
			7:[f514<0.0814893] yes=13,no=14,missing=13
				13:[f199<0.113565] yes=25,no=26,missing=25
					25:[f990<0.0712996] yes=37,no=38,missing=37
						37:leaf=-0.120864
						38:leaf=0.290678
					26:leaf=0.333765
				14:leaf=0.192267
			8:[f0<0.460218] yes=15,no=16,missing=15
				15:leaf=0.142781
				16:leaf=0.321328
		4:[f35<0.290335] yes=9,no=10,missing=9
			9:[f121<0.0994888] yes=17,no=18,missing=17
				17:[f107<0.196049] yes=27,no=28,missing=27
					27:leaf=0.180453
					28:leaf=0.0527611
				18:leaf=-0.0739316
			10:[f35<0.456508] yes=19,no=20,missing=19
				19:[f35<0.328236] yes=29,no=30,missing=29
					29:[f35<0.314386] yes=39,no=40,missing=39
						39:leaf=-0.0509002
						40:leaf=0.0421693
					30:leaf=-0.0946075
				20:leaf=0.0996108
	2:[f34<0.455408] yes=5,no=6,missing=5
		5:[f603<0.192323] yes=11,no=12,missing=11
			11:[f752<0.127104] yes=21,no=22,missing=21
				21:[f364<0.147201] yes=31,no=32,missing=31
					31:[f249<0.228182] yes=41,no=42,missing=41
						41:leaf=0.156142
						42:leaf=-0.0116227
					32:leaf=-0.0761825
				22:[f34<0.254119] yes=33,no=34,missing=33
					33:[f34<0.163227] yes=43,no=44,missing=43
						43:leaf=0.0952778
						44:leaf=-0.00364678
					34:leaf=-0.106164
			12:[f33<0.49976] yes=23,no=24,missing=23
				23:[f33<0.398718] yes=35,no=36,missing=35
					35:[f34<0.26447] yes=45,no=46,missing=45
						45:leaf=0.00704863
						46:leaf=-0.112515
					36:leaf=0.0927197
				24:leaf=-0.119385
		6:leaf=-0.138979
booster[16]:
0:[f33<0.0305357] yes=1,no=2,missing=1
	1:[f670<0.0565946] yes=3,no=4,missing=3
		3:[f347<0.0840176] yes=7,no=8,missing=7
			7:[f36<0.0572222] yes=13,no=14,missing=13
				13:[f198<0.113289] yes=23,no=24,missing=23
					23:[f42<0.377133] yes=33,no=34,missing=33
						33:leaf=0.11345
						34:leaf=-0.224534
					24:leaf=-0.376682
				14:[f36<0.31538] yes=25,no=26,missing=25
					25:[f752<0.0807737] yes=35,no=36,missing=35
						35:leaf=-0.190986
						36:leaf=-0.0668363
					26:[f197<0.385099] yes=37,no=38,missing=37
						37:leaf=0.0504208
						38:leaf=-0.145886
			8:[f347<0.330247] yes=15,no=16,missing=15
				15:leaf=-0.242034
				16:leaf=-0.0107279
		4:[f798<0.159697] yes=9,no=10,missing=9
			9:[f670<0.335697] yes=17,no=18,missing=17
				17:leaf=-0.155237
				18:leaf=0.00868882
			10:leaf=-0.351104
	2:[f102<0.2681] yes=5,no=6,missing=5
		5:[f603<0.196879] yes=11,no=12,missing=11
			11:[f635<0.0318438] yes=19,no=20,missing=19
				19:[f752<0.099565] yes=27,no=28,missing=27
					27:[f33<0.297521] yes=39,no=40,missing=39
						39:leaf=-0.114121
						40:leaf=0.00469315
					28:[f34<0.0437455] yes=41,no=42,missing=41
						41:leaf=0.112727
						42:leaf=0.00516926
				20:[f145<0.0973369] yes=29,no=30,missing=29
					29:[f33<0.23015] yes=43,no=44,missing=43
						43:leaf=-0.0633947
						44:leaf=-0.194621
					30:leaf=0.0602353
			12:[f41<0.116212] yes=21,no=22,missing=21
				21:[f33<0.327154] yes=31,no=32,missing=31
					31:leaf=0.132957
					32:[f33<0.49976] yes=45,no=46,missing=45
						45:leaf=-0.0765365
						46:leaf=0.120519
				22:leaf=-0.101221
		6:leaf=0.13364
booster[17]:
0:[f33<0.0305357] yes=1,no=2,missing=1
	1:[f670<0.0565946] yes=3,no=4,missing=3
		3:[f347<0.0840176] yes=7,no=8,missing=7
			7:[f36<0.0572222] yes=13,no=14,missing=13
				13:[f198<0.113289] yes=23,no=24,missing=23
					23:[f42<0.377133] yes=33,no=34,missing=33
						33:leaf=-0.11345
						34:leaf=0.224534
					24:leaf=0.376682
				14:[f36<0.31538] yes=25,no=26,missing=25
					25:[f752<0.0807737] yes=35,no=36,missing=35
						35:leaf=0.190986
						36:leaf=0.0668363
					26:[f197<0.385099] yes=37,no=38,missing=37
						37:leaf=-0.0504208
						38:leaf=0.145886
			8:[f347<0.330247] yes=15,no=16,missing=15
				15:leaf=0.242034
				16:leaf=0.0107279
		4:[f798<0.159697] yes=9,no=10,missing=9
			9:[f670<0.335697] yes=17,no=18,missing=17
				17:leaf=0.155237
				18:leaf=-0.00868884
			10:leaf=0.351104
	2:[f102<0.2681] yes=5,no=6,missing=5
		5:[f603<0.196879] yes=11,no=12,missing=11
			11:[f635<0.0318438] yes=19,no=20,missing=19
				19:[f752<0.099565] yes=27,no=28,missing=27
					27:[f33<0.297521] yes=39,no=40,missing=39
						39:leaf=0.114121
						40:leaf=-0.00469314
					28:[f34<0.0437455] yes=41,no=42,missing=41
						41:leaf=-0.112727
						42:leaf=-0.00516928
				20:[f145<0.0973369] yes=29,no=30,missing=29
					29:[f33<0.23015] yes=43,no=44,missing=43
						43:leaf=0.0633947
						44:leaf=0.194621
					30:leaf=-0.0602353
			12:[f41<0.116212] yes=21,no=22,missing=21
				21:[f33<0.327154] yes=31,no=32,missing=31
					31:leaf=-0.132957
					32:[f33<0.49976] yes=45,no=46,missing=45
						45:leaf=0.0765365
						46:leaf=-0.120519
				22:leaf=0.101221
		6:leaf=-0.13364
booster[18]:
0:[f41<0.0269756] yes=1,no=2,missing=1
	1:[f636<0.0349245] yes=3,no=4,missing=3
		3:[f947<0.040444] yes=7,no=8,missing=7
			7:[f37<0.0624098] yes=11,no=12,missing=11
				11:[f853<0.101734] yes=19,no=20,missing=19
					19:[f164<0.0866683] yes=29,no=30,missing=29
						29:leaf=0.104736
						30:leaf=-0.200913
					20:leaf=-0.187934
				12:leaf=-0.203357
			8:[f947<0.30399] yes=13,no=14,missing=13
				13:leaf=-0.23458
				14:[f35<0.0831679] yes=21,no=22,missing=21
					21:leaf=0.0638612
					22:leaf=-0.0996183
		4:[f636<0.184733] yes=9,no=10,missing=9
			9:[f752<0.0672273] yes=15,no=16,missing=15
				15:[f33<0.306061] yes=23,no=24,missing=23
					23:leaf=-0.30007
					24:leaf=-0.101043
				16:[f752<0.167244] yes=25,no=26,missing=25
					25:leaf=-0.0106695
					26:leaf=-0.0626436
			10:[f840<0.100838] yes=17,no=18,missing=17
				17:[f636<0.418572] yes=27,no=28,missing=27
					27:[f636<0.270834] yes=31,no=32,missing=31
						31:leaf=0.00579097
						32:leaf=0.129613
					28:leaf=-0.178313
				18:leaf=-0.182306
	2:[f840<0.352956] yes=5,no=6,missing=5
		5:leaf=-0.16376
		6:leaf=-0.0430584
booster[19]:
0:[f41<0.0269756] yes=1,no=2,missing=1
	1:[f636<0.0349245] yes=3,no=4,missing=3
		3:[f947<0.040444] yes=7,no=8,missing=7
			7:[f37<0.0624098] yes=11,no=12,missing=11
				11:[f853<0.101734] yes=19,no=20,missing=19
					19:[f164<0.0866683] yes=29,no=30,missing=29
						29:leaf=-0.104736
						30:leaf=0.200913
					20:leaf=0.187934
				12:leaf=0.203357
			8:[f947<0.30399] yes=13,no=14,missing=13
				13:leaf=0.23458
				14:[f35<0.0831679] yes=21,no=22,missing=21
					21:leaf=-0.0638612
					22:leaf=0.0996183
		4:[f636<0.184733] yes=9,no=10,missing=9
			9:[f752<0.0672273] yes=15,no=16,missing=15
				15:[f33<0.306061] yes=23,no=24,missing=23
					23:leaf=0.30007
					24:leaf=0.101043
				16:[f752<0.167244] yes=25,no=26,missing=25
					25:leaf=0.0106695
					26:leaf=0.0626436
			10:[f840<0.100838] yes=17,no=18,missing=17
				17:[f636<0.418572] yes=27,no=28,missing=27
					27:[f636<0.270834] yes=31,no=32,missing=31
						31:leaf=-0.00579094
						32:leaf=-0.129613
					28:leaf=0.178313
				18:leaf=0.182306
	2:[f840<0.352956] yes=5,no=6,missing=5
		5:leaf=0.16376
		6:leaf=0.0430584
booster[20]:
0:[f752<0.103823] yes=1,no=2,missing=1
	1:[f636<0.020351] yes=3,no=4,missing=3
		3:[f306<0.0415673] yes=7,no=8,missing=7
			7:[f35<0.0402058] yes=13,no=14,missing=13
				13:[f198<0.12161] yes=25,no=26,missing=25
					25:[f990<0.0712996] yes=37,no=38,missing=37
						37:leaf=0.0620694
						38:leaf=-0.246554
					26:leaf=-0.319827
				14:[f35<0.290194] yes=27,no=28,missing=27
					27:[f121<0.0832483] yes=39,no=40,missing=39
						39:leaf=-0.153383
						40:leaf=0.0384005
					28:[f35<0.533327] yes=41,no=42,missing=41
						41:leaf=0.0263236
						42:leaf=-0.115809
			8:[f306<0.31672] yes=15,no=16,missing=15
				15:leaf=-0.236823
				16:leaf=-0.00792341
		4:[f636<0.187831] yes=9,no=10,missing=9
			9:[f121<0.0258279] yes=17,no=18,missing=17
				17:[f752<0.0642983] yes=29,no=30,missing=29
					29:leaf=-0.240869
					30:leaf=-0.0603171
				18:leaf=-0.0409844
			10:[f636<0.416264] yes=19,no=20,missing=19
				19:[f636<0.27577] yes=31,no=32,missing=31
					31:[f636<0.253627] yes=43,no=44,missing=43
						43:leaf=0.0112766
						44:leaf=-0.144691
					32:leaf=0.0963388
				20:leaf=-0.217391
	2:[f840<0.0670332] yes=5,no=6,missing=5
		5:[f513<0.0499019] yes=11,no=12,missing=11
			11:[f35<0.0688153] yes=21,no=22,missing=21
				21:[f641<0.0825783] yes=33,no=34,missing=33
					33:[f36<0.0501297] yes=45,no=46,missing=45
						45:leaf=0.148491
						46:leaf=-0.0289007
					34:leaf=-0.161561
				22:[f34<0.058572] yes=35,no=36,missing=35
					35:leaf=-0.00973432
					36:leaf=-0.105806
			12:[f513<0.354395] yes=23,no=24,missing=23
				23:leaf=-0.157006
				24:leaf=-0.0380594
		6:leaf=-0.206154
booster[21]:
0:[f752<0.103823] yes=1,no=2,missing=1
	1:[f636<0.020351] yes=3,no=4,missing=3
		3:[f306<0.0415673] yes=7,no=8,missing=7
			7:[f35<0.0402058] yes=13,no=14,missing=13
				13:[f198<0.12161] yes=25,no=26,missing=25
					25:[f990<0.0712996] yes=37,no=38,missing=37
						37:leaf=-0.0620695
						38:leaf=0.246554
					26:leaf=0.319827
				14:[f35<0.290194] yes=27,no=28,missing=27
					27:[f121<0.0832483] yes=39,no=40,missing=39
						39:leaf=0.153383
						40:leaf=-0.0384005
					28:[f35<0.533327] yes=41,no=42,missing=41
						41:leaf=-0.0263236
						42:leaf=0.115809
			8:[f306<0.31672] yes=15,no=16,missing=15
				15:leaf=0.236823
				16:leaf=0.00792338
		4:[f636<0.187831] yes=9,no=10,missing=9
			9:[f121<0.0258279] yes=17,no=18,missing=17
				17:[f752<0.0642983] yes=29,no=30,missing=29
					29:leaf=0.240869
					30:leaf=0.0603171
				18:leaf=0.0409844
			10:[f636<0.416264] yes=19,no=20,missing=19
				19:[f636<0.27577] yes=31,no=32,missing=31
					31:[f636<0.253627] yes=43,no=44,missing=43
						43:leaf=-0.0112766
						44:leaf=0.144691
					32:leaf=-0.0963389
				20:leaf=0.217391
	2:[f840<0.0670332] yes=5,no=6,missing=5
		5:[f513<0.0499019] yes=11,no=12,missing=11
			11:[f35<0.0688153] yes=21,no=22,missing=21
				21:[f641<0.0825783] yes=33,no=34,missing=33
					33:[f36<0.0501297] yes=45,no=46,missing=45
						45:leaf=-0.148491
						46:leaf=0.0289007
					34:leaf=0.161561
				22:[f34<0.058572] yes=35,no=36,missing=35
					35:leaf=0.00973432
					36:leaf=0.105806
			12:[f513<0.354395] yes=23,no=24,missing=23
				23:leaf=0.157006
				24:leaf=0.0380593
		6:leaf=0.206154
booster[22]:
0:[f752<0.103823] yes=1,no=2,missing=1
	1:[f121<0.129253] yes=3,no=4,missing=3
		3:[f741<0.230958] yes=7,no=8,missing=7
			7:[f0<0.0460559] yes=15,no=16,missing=15
				15:[f589<0.0598972] yes=19,no=20,missing=19
					19:[f947<0.0762232] yes=25,no=26,missing=25
						25:leaf=0.0264257
						26:leaf=-0.176443
					20:[f589<0.273604] yes=27,no=28,missing=27
						27:leaf=-0.235055
						28:leaf=0.0102734
				16:leaf=-0.184258
			8:leaf=-0.433918
		4:[f33<0.220756] yes=9,no=10,missing=9
			9:leaf=0.150366
			10:leaf=-0.0163383
	2:[f513<0.0499019] yes=5,no=6,missing=5
		5:[f840<0.107844] yes=11,no=12,missing=11
			11:[f35<0.0688153] yes=17,no=18,missing=17
				17:[f641<0.0825783] yes=21,no=22,missing=21
					21:[f36<0.0501297] yes=29,no=30,missing=29
						29:leaf=0.143525
						30:leaf=-0.0228268
					22:leaf=-0.127999
				18:[f34<0.058572] yes=23,no=24,missing=23
					23:leaf=-0.0082043
					24:leaf=-0.0909507
			12:leaf=-0.159135
		6:[f513<0.354395] yes=13,no=14,missing=13
			13:leaf=-0.141369
			14:leaf=-0.0344753
booster[23]:
0:[f752<0.103823] yes=1,no=2,missing=1
	1:[f121<0.129253] yes=3,no=4,missing=3
		3:[f741<0.230958] yes=7,no=8,missing=7
			7:[f0<0.0460559] yes=15,no=16,missing=15
				15:[f589<0.0598972] yes=19,no=20,missing=19
					19:[f947<0.0762232] yes=25,no=26,missing=25
						25:leaf=-0.0264256
						26:leaf=0.176443
					20:[f589<0.273604] yes=27,no=28,missing=27
						27:leaf=0.235055
						28:leaf=-0.0102734
				16:leaf=0.184258
			8:leaf=0.433918
		4:[f33<0.220756] yes=9,no=10,missing=9
			9:leaf=-0.150366
			10:leaf=0.0163383
	2:[f513<0.0499019] yes=5,no=6,missing=5
		5:[f840<0.107844] yes=11,no=12,missing=11
			11:[f35<0.0688153] yes=17,no=18,missing=17
				17:[f641<0.0825783] yes=21,no=22,missing=21
					21:[f36<0.0501297] yes=29,no=30,missing=29
						29:leaf=-0.143525
						30:leaf=0.0228268
					22:leaf=0.127999
				18:[f34<0.058572] yes=23,no=24,missing=23
					23:leaf=0.00820429
					24:leaf=0.0909507
			12:leaf=0.159135
		6:[f513<0.354395] yes=13,no=14,missing=13
			13:leaf=0.141369
			14:leaf=0.0344753
booster[24]:
0:[f513<0.0258393] yes=1,no=2,missing=1
	1:[f752<0.106059] yes=3,no=4,missing=3
		3:[f121<0.129253] yes=7,no=8,missing=7
			7:[f636<0.0349245] yes=13,no=14,missing=13
				13:[f42<0.377133] yes=23,no=24,missing=23
					23:[f366<0.0459719] yes=29,no=30,missing=29
						29:leaf=0.0297926
						30:leaf=-0.168695
					24:leaf=-0.21782
				14:[f636<0.187831] yes=25,no=26,missing=25
					25:[f752<0.0604709] yes=31,no=32,missing=31
						31:leaf=-0.213145
						32:leaf=-0.0575016
					26:[f636<0.416264] yes=33,no=34,missing=33
						33:leaf=0.0119767
						34:leaf=-0.169147
			8:[f33<0.220756] yes=15,no=16,missing=15
				15:leaf=0.146674
				16:leaf=-0.0136023
		4:[f840<0.107844] yes=9,no=10,missing=9
			9:[f697<0.0637398] yes=17,no=18,missing=17
				17:[f589<0.0731407] yes=27,no=28,missing=27
					27:[f36<0.0501297] yes=35,no=36,missing=35
						35:leaf=0.137675
						36:leaf=-0.0247868
					28:leaf=-0.116589
				18:leaf=-0.0788995
			10:[f41<0.109557] yes=19,no=20,missing=19
				19:leaf=-0.155652
				20:leaf=-0.0287326
	2:[f513<0.370804] yes=5,no=6,missing=5
		5:[f513<0.296645] yes=11,no=12,missing=11
			11:leaf=-0.181248
			12:[f107<0.0812326] yes=21,no=22,missing=21
				21:leaf=-0.03046
				22:leaf=-0.0966101
		6:leaf=-0.00778556
booster[25]:
0:[f513<0.0258393] yes=1,no=2,missing=1
	1:[f752<0.106059] yes=3,no=4,missing=3
		3:[f121<0.129253] yes=7,no=8,missing=7
			7:[f636<0.0349245] yes=13,no=14,missing=13
				13:[f42<0.377133] yes=23,no=24,missing=23
					23:[f366<0.0459719] yes=29,no=30,missing=29
						29:leaf=-0.0297927
						30:leaf=0.168695
					24:leaf=0.21782
				14:[f636<0.187831] yes=25,no=26,missing=25
					25:[f752<0.0604709] yes=31,no=32,missing=31
						31:leaf=0.213145
						32:leaf=0.0575016
					26:[f636<0.416264] yes=33,no=34,missing=33
						33:leaf=-0.0119768
						34:leaf=0.169147
			8:[f33<0.220756] yes=15,no=16,missing=15
				15:leaf=-0.146674
				16:leaf=0.0136023
		4:[f840<0.107844] yes=9,no=10,missing=9
			9:[f697<0.0637398] yes=17,no=18,missing=17
				17:[f589<0.0731407] yes=27,no=28,missing=27
					27:[f36<0.0501297] yes=35,no=36,missing=35
						35:leaf=-0.137675
						36:leaf=0.0247868
					28:leaf=0.116589
				18:leaf=0.0788995
			10:[f41<0.109557] yes=19,no=20,missing=19
				19:leaf=0.155652
				20:leaf=0.0287326
	2:[f513<0.370804] yes=5,no=6,missing=5
		5:[f513<0.296645] yes=11,no=12,missing=11
			11:leaf=0.181248
			12:[f107<0.0812326] yes=21,no=22,missing=21
				21:leaf=0.03046
				22:leaf=0.0966101
		6:leaf=0.00778556
booster[26]:
0:[f34<0.0310833] yes=1,no=2,missing=1
	1:[f745<0.0560921] yes=3,no=4,missing=3
		3:[f179<0.202333] yes=7,no=8,missing=7
			7:[f752<0.10347] yes=13,no=14,missing=13
				13:[f782<0.103219] yes=19,no=20,missing=19
					19:[f568<0.073667] yes=27,no=28,missing=27
						27:leaf=0.037868
						28:leaf=-0.213279
					20:leaf=-0.258698
				14:[f840<0.107844] yes=21,no=22,missing=21
					21:[f513<0.0499019] yes=29,no=30,missing=29
						29:leaf=0.134627
						30:leaf=-0.0566032
					22:leaf=-0.0819771
			8:leaf=-0.365531
		4:[f745<0.312831] yes=9,no=10,missing=9
			9:leaf=-0.183299
			10:leaf=-0.0547125
	2:[f34<0.455408] yes=5,no=6,missing=5
		5:[f603<0.139888] yes=11,no=12,missing=11
			11:[f364<0.151601] yes=15,no=16,missing=15
				15:[f752<0.152811] yes=23,no=24,missing=23
					23:[f90<0.190528] yes=31,no=32,missing=31
						31:leaf=-0.142535
						32:leaf=0.0118334
					24:leaf=0.00584506
				16:leaf=0.0450217
			12:[f34<0.366746] yes=17,no=18,missing=17
				17:[f34<0.256507] yes=25,no=26,missing=25
					25:[f34<0.182502] yes=33,no=34,missing=33
						33:leaf=-0.0184036
						34:leaf=0.0602839
					26:[f697<0.0792123] yes=35,no=36,missing=35
						35:leaf=0.00193522
						36:leaf=-0.0957477
				18:leaf=0.0861429
		6:leaf=0.104091
booster[27]:
0:[f34<0.0310833] yes=1,no=2,missing=1
	1:[f745<0.0560921] yes=3,no=4,missing=3
		3:[f179<0.202333] yes=7,no=8,missing=7
			7:[f752<0.10347] yes=13,no=14,missing=13
				13:[f782<0.103219] yes=19,no=20,missing=19
					19:[f568<0.073667] yes=27,no=28,missing=27
						27:leaf=-0.037868
						28:leaf=0.213279
					20:leaf=0.258698
				14:[f840<0.107844] yes=21,no=22,missing=21
					21:[f513<0.0499019] yes=29,no=30,missing=29
						29:leaf=-0.134627
						30:leaf=0.0566032
					22:leaf=0.0819771
			8:leaf=0.36553
		4:[f745<0.312831] yes=9,no=10,missing=9
			9:leaf=0.183299
			10:leaf=0.0547125
	2:[f34<0.455408] yes=5,no=6,missing=5
		5:[f603<0.139888] yes=11,no=12,missing=11
			11:[f364<0.151601] yes=15,no=16,missing=15
				15:[f752<0.152811] yes=23,no=24,missing=23
					23:[f90<0.190528] yes=31,no=32,missing=31
						31:leaf=0.142535
						32:leaf=-0.0118334
					24:leaf=-0.00584505
				16:leaf=-0.0450217
			12:[f34<0.366746] yes=17,no=18,missing=17
				17:[f34<0.256507] yes=25,no=26,missing=25
					25:[f34<0.182502] yes=33,no=34,missing=33
						33:leaf=0.0184036
						34:leaf=-0.0602839
					26:[f697<0.0792123] yes=35,no=36,missing=35
						35:leaf=-0.00193525
						36:leaf=0.0957477
				18:leaf=-0.0861429
		6:leaf=-0.104091
booster[28]:
0:[f347<0.0630771] yes=1,no=2,missing=1
	1:[f36<0.0416819] yes=3,no=4,missing=3
		3:[f37<0.0624098] yes=7,no=8,missing=7
			7:[f179<0.097624] yes=11,no=12,missing=11
				11:[f514<0.0621798] yes=17,no=18,missing=17
					17:[f41<0.066515] yes=25,no=26,missing=25
						25:leaf=0.0604579
						26:leaf=-0.116609
					18:leaf=-0.169044
				12:leaf=-0.347126
			8:leaf=-0.179249
		4:[f478<0.208604] yes=9,no=10,missing=9
			9:[f36<0.299167] yes=13,no=14,missing=13
				13:[f34<0.290506] yes=19,no=20,missing=19
					19:leaf=-0.176961
					20:leaf=-0.038499
				14:[f36<0.410001] yes=21,no=22,missing=21
					21:[f36<0.322011] yes=27,no=28,missing=27
						27:leaf=-0.0527655
						28:leaf=0.0437659
					22:leaf=-0.130211
			10:[f33<0.204112] yes=15,no=16,missing=15
				15:leaf=-0.0438792
				16:[f33<0.376352] yes=23,no=24,missing=23
					23:leaf=0.108475
					24:leaf=-0.0207297
	2:[f557<0.339794] yes=5,no=6,missing=5
		5:leaf=-0.215686
		6:leaf=-0.0688747
booster[29]:
0:[f347<0.0630771] yes=1,no=2,missing=1
	1:[f36<0.0416819] yes=3,no=4,missing=3
		3:[f37<0.0624098] yes=7,no=8,missing=7
			7:[f179<0.097624] yes=11,no=12,missing=11
				11:[f514<0.0621798] yes=17,no=18,missing=17
					17:[f41<0.066515] yes=25,no=26,missing=25
						25:leaf=-0.060458
						26:leaf=0.116609
					18:leaf=0.169044
				12:leaf=0.347126
			8:leaf=0.179249
		4:[f478<0.208604] yes=9,no=10,missing=9
			9:[f36<0.299167] yes=13,no=14,missing=13
				13:[f34<0.290506] yes=19,no=20,missing=19
					19:leaf=0.176961
					20:leaf=0.038499
				14:[f36<0.410001] yes=21,no=22,missing=21
					21:[f36<0.322011] yes=27,no=28,missing=27
						27:leaf=0.0527655
						28:leaf=-0.0437659
					22:leaf=0.130211
			10:[f33<0.204112] yes=15,no=16,missing=15
				15:leaf=0.0438792
				16:[f33<0.376352] yes=23,no=24,missing=23
					23:leaf=-0.108475
					24:leaf=0.0207297
	2:[f557<0.339794] yes=5,no=6,missing=5
		5:leaf=0.215686
		6:leaf=0.0688747
booster[30]:
0:[f121<0.161653] yes=1,no=2,missing=1
	1:[f752<0.139775] yes=3,no=4,missing=3
		3:[f984<0.08713] yes=5,no=6,missing=5
			5:[f589<0.0598972] yes=9,no=10,missing=9
				9:[f164<0.0439289] yes=13,no=14,missing=13
					13:[f40<0.0656238] yes=19,no=20,missing=19
						19:leaf=0.0122091
						20:leaf=-0.251259
					14:leaf=-0.173078
				10:[f589<0.35796] yes=15,no=16,missing=15
					15:leaf=-0.196666
					16:leaf=-0.0463618
			6:leaf=-0.266726
		4:[f41<0.0565885] yes=7,no=8,missing=7
			7:[f513<0.0499019] yes=11,no=12,missing=11
				11:[f491<0.0738524] yes=17,no=18,missing=17
					17:[f34<0.0522263] yes=21,no=22,missing=21
						21:leaf=0.132746
						22:leaf=-0.00766824
					18:leaf=-0.0513092
				12:leaf=-0.0378154
			8:leaf=-0.106753
	2:leaf=0.141937
booster[31]:
0:[f121<0.161653] yes=1,no=2,missing=1
	1:[f752<0.139775] yes=3,no=4,missing=3
		3:[f984<0.08713] yes=5,no=6,missing=5
			5:[f589<0.0598972] yes=9,no=10,missing=9
				9:[f164<0.0439289] yes=13,no=14,missing=13
					13:[f40<0.0656238] yes=19,no=20,missing=19
						19:leaf=-0.012209
						20:leaf=0.251259
					14:leaf=0.173078
				10:[f589<0.35796] yes=15,no=16,missing=15
					15:leaf=0.196666
					16:leaf=0.0463619
			6:leaf=0.266726
		4:[f41<0.0565885] yes=7,no=8,missing=7
			7:[f513<0.0499019] yes=11,no=12,missing=11
				11:[f491<0.0738524] yes=17,no=18,missing=17
					17:[f34<0.0522263] yes=21,no=22,missing=21
						21:leaf=-0.132746
						22:leaf=0.00766825
					18:leaf=0.0513092
				12:leaf=0.0378154
			8:leaf=0.106753
	2:leaf=-0.141937
booster[32]:
0:[f121<0.161653] yes=1,no=2,missing=1
	1:[f198<0.113289] yes=3,no=4,missing=3
		3:[f0<0.0460559] yes=5,no=6,missing=5
			5:[f366<0.0459719] yes=7,no=8,missing=7
				7:[f42<0.377133] yes=9,no=10,missing=9
					9:[f947<0.0762232] yes=11,no=12,missing=11
						11:leaf=0.0283181
						12:leaf=-0.153804
					10:leaf=-0.197085
				8:leaf=-0.162435
			6:leaf=-0.172314
		4:leaf=-0.272074
	2:leaf=0.136849
booster[33]:
0:[f121<0.161653] yes=1,no=2,missing=1
	1:[f198<0.113289] yes=3,no=4,missing=3
		3:[f0<0.0460559] yes=5,no=6,missing=5
			5:[f366<0.0459719] yes=7,no=8,missing=7
				7:[f42<0.377133] yes=9,no=10,missing=9
					9:[f947<0.0762232] yes=11,no=12,missing=11
						11:leaf=-0.028318
						12:leaf=0.153804
					10:leaf=0.197085
				8:leaf=0.162435
			6:leaf=0.172314
		4:leaf=0.272074
	2:leaf=-0.136849
booster[34]:
0:[f636<0.020351] yes=1,no=2,missing=1
	1:[f35<0.0402058] yes=3,no=4,missing=3
		3:[f179<0.097624] yes=7,no=8,missing=7
			7:[f713<0.103212] yes=15,no=16,missing=15
				15:[f782<0.0508659] yes=23,no=24,missing=23
					23:[f347<0.0903707] yes=29,no=30,missing=29
						29:leaf=0.045056
						30:leaf=-0.154359
					24:leaf=-0.245881
				16:leaf=-0.206121
			8:leaf=-0.261191
		4:[f35<0.357622] yes=9,no=10,missing=9
			9:[f90<0.186002] yes=17,no=18,missing=17
				17:[f35<0.290335] yes=25,no=26,missing=25
					25:[f35<0.267647] yes=31,no=32,missing=31
						31:leaf=-0.0899439
						32:leaf=-0.21235
					26:[f34<0.0525833] yes=33,no=34,missing=33
						33:leaf=0.000844557
						34:leaf=-0.117008
				18:leaf=-0.00395949
			10:[f35<0.456508] yes=19,no=20,missing=19
				19:leaf=0.102435
				20:leaf=-0.10967
	2:[f636<0.184733] yes=5,no=6,missing=5
		5:[f752<0.0672273] yes=11,no=12,missing=11
			11:leaf=-0.187379
			12:leaf=-0.0610574
		6:[f636<0.418572] yes=13,no=14,missing=13
			13:[f636<0.292935] yes=21,no=22,missing=21
				21:[f636<0.24804] yes=27,no=28,missing=27
					27:leaf=0.0295122
					28:[f636<0.254487] yes=35,no=36,missing=35
						35:leaf=-0.150796
						36:leaf=-0.0116686
				22:leaf=0.0916684
			14:leaf=-0.135683
booster[35]:
0:[f636<0.020351] yes=1,no=2,missing=1
	1:[f35<0.0402058] yes=3,no=4,missing=3
		3:[f179<0.097624] yes=7,no=8,missing=7
			7:[f713<0.103212] yes=15,no=16,missing=15
				15:[f782<0.0508659] yes=23,no=24,missing=23
					23:[f347<0.0903707] yes=29,no=30,missing=29
						29:leaf=-0.0450558
						30:leaf=0.154359
					24:leaf=0.245881
				16:leaf=0.206121
			8:leaf=0.261191
		4:[f35<0.357622] yes=9,no=10,missing=9
			9:[f90<0.186002] yes=17,no=18,missing=17
				17:[f35<0.290335] yes=25,no=26,missing=25
					25:[f35<0.267647] yes=31,no=32,missing=31
						31:leaf=0.0899439
						32:leaf=0.21235
					26:[f34<0.0525833] yes=33,no=34,missing=33
						33:leaf=-0.000844558
						34:leaf=0.117008
				18:leaf=0.00395948
			10:[f35<0.456508] yes=19,no=20,missing=19
				19:leaf=-0.102435
				20:leaf=0.10967
	2:[f636<0.184733] yes=5,no=6,missing=5
		5:[f752<0.0672273] yes=11,no=12,missing=11
			11:leaf=0.187379
			12:leaf=0.0610574
		6:[f636<0.418572] yes=13,no=14,missing=13
			13:[f636<0.292935] yes=21,no=22,missing=21
				21:[f636<0.24804] yes=27,no=28,missing=27
					27:leaf=-0.0295122
					28:[f636<0.254487] yes=35,no=36,missing=35
						35:leaf=0.150796
						36:leaf=0.0116686
				22:leaf=-0.0916684
			14:leaf=0.135683
booster[36]:
0:[f121<0.161653] yes=1,no=2,missing=1
	1:[f215<0.0615993] yes=3,no=4,missing=3
		3:[f741<0.0842255] yes=5,no=6,missing=5
			5:[f164<0.0439289] yes=7,no=8,missing=7
				7:[f568<0.0657849] yes=9,no=10,missing=9
					9:[f208<0.0792581] yes=11,no=12,missing=11
						11:leaf=0.0189558
						12:leaf=-0.213596
					10:[f568<0.229131] yes=13,no=14,missing=13
						13:leaf=-0.209401
						14:leaf=-0.0241129
				8:leaf=-0.163945
			6:leaf=-0.239954
		4:leaf=-0.165589
	2:leaf=0.131483
booster[37]:
0:[f121<0.161653] yes=1,no=2,missing=1
	1:[f215<0.0615993] yes=3,no=4,missing=3
		3:[f741<0.0842255] yes=5,no=6,missing=5
			5:[f164<0.0439289] yes=7,no=8,missing=7
				7:[f568<0.0657849] yes=9,no=10,missing=9
					9:[f208<0.0792581] yes=11,no=12,missing=11
						11:leaf=-0.0189557
						12:leaf=0.213596
					10:[f568<0.229131] yes=13,no=14,missing=13
						13:leaf=0.209401
						14:leaf=0.0241129
				8:leaf=0.163945
			6:leaf=0.239954
		4:leaf=0.165589
	2:leaf=-0.131483
booster[38]:
0:[f745<0.0435457] yes=1,no=2,missing=1
	1:[f198<0.113289] yes=3,no=4,missing=3
		3:[f37<0.0319821] yes=5,no=6,missing=5
			5:[f33<0.0305357] yes=7,no=8,missing=7
				7:[f905<0.118721] yes=9,no=10,missing=9
					9:[f42<0.377133] yes=13,no=14,missing=13
						13:leaf=0.0395671
						14:leaf=-0.175479
					10:leaf=-0.279411
				8:[f150<0.24159] yes=11,no=12,missing=11
					11:[f33<0.49976] yes=15,no=16,missing=15
						15:leaf=-0.0810945
						16:leaf=0.0519247
					12:leaf=0.11338
			6:leaf=-0.158812
		4:leaf=-0.239162
	2:leaf=-0.15309
booster[39]:
0:[f745<0.0435457] yes=1,no=2,missing=1
	1:[f198<0.113289] yes=3,no=4,missing=3
		3:[f37<0.0319821] yes=5,no=6,missing=5
			5:[f33<0.0305357] yes=7,no=8,missing=7
				7:[f905<0.118721] yes=9,no=10,missing=9
					9:[f42<0.377133] yes=13,no=14,missing=13
						13:leaf=-0.0395672
						14:leaf=0.175479
					10:leaf=0.279411
				8:[f150<0.24159] yes=11,no=12,missing=11
					11:[f33<0.49976] yes=15,no=16,missing=15
						15:leaf=0.0810945
						16:leaf=-0.0519247
					12:leaf=-0.11338
			6:leaf=0.158812
		4:leaf=0.239162
	2:leaf=0.15309
booster[40]:
0:[f514<0.05601] yes=1,no=2,missing=1
	1:[f798<0.0243945] yes=3,no=4,missing=3
		3:[f990<0.0712996] yes=5,no=6,missing=5
			5:[f179<0.0792699] yes=9,no=10,missing=9
				9:[f366<0.0682855] yes=13,no=14,missing=13
					13:[f752<0.106059] yes=15,no=16,missing=15
						15:leaf=0.00903032
						16:leaf=0.0901995
					14:leaf=-0.140317
				10:leaf=-0.230322
			6:leaf=-0.193076
		4:[f798<0.251564] yes=7,no=8,missing=7
			7:leaf=-0.205621
			8:[f798<0.370942] yes=11,no=12,missing=11
				11:leaf=-0.0153593
				12:leaf=0.0678983
	2:leaf=-0.161487
booster[41]:
0:[f514<0.05601] yes=1,no=2,missing=1
	1:[f798<0.0243945] yes=3,no=4,missing=3
		3:[f990<0.0712996] yes=5,no=6,missing=5
			5:[f179<0.0792699] yes=9,no=10,missing=9
				9:[f366<0.0682855] yes=13,no=14,missing=13
					13:[f752<0.106059] yes=15,no=16,missing=15
						15:leaf=-0.00903055
						16:leaf=-0.0901996
					14:leaf=0.140317
				10:leaf=0.230322
			6:leaf=0.193076
		4:[f798<0.251564] yes=7,no=8,missing=7
			7:leaf=0.205621
			8:[f798<0.370942] yes=11,no=12,missing=11
				11:leaf=0.0153591
				12:leaf=-0.0678984
	2:leaf=0.161487
booster[42]:
0:[f41<0.0269756] yes=1,no=2,missing=1
	1:[f0<0.0460559] yes=3,no=4,missing=3
		3:[f571<0.0478372] yes=7,no=8,missing=7
			7:[f557<0.0560018] yes=11,no=12,missing=11
				11:[f643<0.0753863] yes=13,no=14,missing=13
					13:[f204<0.08516] yes=17,no=18,missing=17
						17:leaf=0.0290671
						18:leaf=-0.161742
					14:leaf=-0.234367
				12:[f557<0.364933] yes=15,no=16,missing=15
					15:leaf=-0.181644
					16:leaf=-0.0206325
			8:leaf=-0.171166
		4:leaf=-0.157647
	2:[f41<0.34092] yes=5,no=6,missing=5
		5:leaf=-0.152453
		6:[f41<0.464407] yes=9,no=10,missing=9
			9:leaf=0.058776
			10:leaf=-0.0823647
booster[43]:
0:[f41<0.0269756] yes=1,no=2,missing=1
	1:[f0<0.0460559] yes=3,no=4,missing=3
		3:[f571<0.0478372] yes=7,no=8,missing=7
			7:[f557<0.0560018] yes=11,no=12,missing=11
				11:[f643<0.0753863] yes=13,no=14,missing=13
					13:[f204<0.08516] yes=17,no=18,missing=17
						17:leaf=-0.0290669
						18:leaf=0.161742
					14:leaf=0.234367
				12:[f557<0.364933] yes=15,no=16,missing=15
					15:leaf=0.181644
					16:leaf=0.0206325
			8:leaf=0.171166
		4:leaf=0.157647
	2:[f41<0.34092] yes=5,no=6,missing=5
		5:leaf=0.152453
		6:[f41<0.464407] yes=9,no=10,missing=9
			9:leaf=-0.058776
			10:leaf=0.0823647
booster[44]:
0:[f40<0.0656238] yes=1,no=2,missing=1
	1:[f513<0.0258393] yes=3,no=4,missing=3
		3:[f208<0.0460061] yes=5,no=6,missing=5
			5:[f198<0.113289] yes=9,no=10,missing=9
				9:[f636<0.0349245] yes=13,no=14,missing=13
					13:[f34<0.0310833] yes=15,no=16,missing=15
						15:leaf=0.034666
						16:leaf=-0.0548552
					14:[f307<0.128083] yes=17,no=18,missing=17
						17:leaf=-0.0490363
						18:leaf=-0.197393
				10:leaf=-0.208585
			6:leaf=-0.211018
		4:[f513<0.296645] yes=7,no=8,missing=7
			7:leaf=-0.159236
			8:[f513<0.370804] yes=11,no=12,missing=11
				11:leaf=-0.0398952
				12:leaf=-0.000279282
	2:leaf=-0.218095
booster[45]:
0:[f40<0.0656238] yes=1,no=2,missing=1
	1:[f513<0.0258393] yes=3,no=4,missing=3
		3:[f208<0.0460061] yes=5,no=6,missing=5
			5:[f198<0.113289] yes=9,no=10,missing=9
				9:[f636<0.0349245] yes=13,no=14,missing=13
					13:[f34<0.0310833] yes=15,no=16,missing=15
						15:leaf=-0.0346662
						16:leaf=0.0548552
					14:[f307<0.128083] yes=17,no=18,missing=17
						17:leaf=0.0490362
						18:leaf=0.197393
				10:leaf=0.208585
			6:leaf=0.211018
		4:[f513<0.296645] yes=7,no=8,missing=7
			7:leaf=0.159236
			8:[f513<0.370804] yes=11,no=12,missing=11
				11:leaf=0.0398952
				12:leaf=0.000279331
	2:leaf=0.218095
booster[46]:
0:[f121<0.161653] yes=1,no=2,missing=1
	1:[f335<0.21076] yes=3,no=4,missing=3
		3:[f670<0.0544027] yes=5,no=6,missing=5
			5:[f485<0.0818809] yes=7,no=8,missing=7
				7:[f42<0.377133] yes=11,no=12,missing=11
					11:[f406<0.157962] yes=13,no=14,missing=13
						13:leaf=0.000734262
						14:leaf=-0.201545
					12:leaf=-0.161244
				8:leaf=-0.202491
			6:[f798<0.0476034] yes=9,no=10,missing=9
				9:leaf=-0.0827942
				10:leaf=-0.208427
		4:leaf=0.123056
	2:leaf=0.123457
booster[47]:
0:[f121<0.161653] yes=1,no=2,missing=1
	1:[f335<0.21076] yes=3,no=4,missing=3
		3:[f670<0.0544027] yes=5,no=6,missing=5
			5:[f485<0.0818809] yes=7,no=8,missing=7
				7:[f42<0.377133] yes=11,no=12,missing=11
					11:[f406<0.157962] yes=13,no=14,missing=13
						13:leaf=-0.000734228
						14:leaf=0.201545
					12:leaf=0.161244
				8:leaf=0.202491
			6:[f798<0.0476034] yes=9,no=10,missing=9
				9:leaf=0.0827942
				10:leaf=0.208427
		4:leaf=-0.123056
	2:leaf=-0.123458
booster[48]:
0:[f364<0.388959] yes=1,no=2,missing=1
	1:[f364<0.150123] yes=3,no=4,missing=3
		3:[f179<0.0792699] yes=5,no=6,missing=5
			5:[f615<0.169442] yes=9,no=10,missing=9
				9:[f215<0.0615993] yes=11,no=12,missing=11
					11:[f347<0.0804146] yes=13,no=14,missing=13
						13:leaf=-0.00376385
						14:leaf=-0.137745
					12:leaf=-0.14077
				10:leaf=0.117771
			6:leaf=-0.206975
		4:[f33<0.27527] yes=7,no=8,missing=7
			7:leaf=0.129994
			8:leaf=-0.0305335
	2:leaf=-0.221806
booster[49]:
0:[f364<0.388959] yes=1,no=2,missing=1
	1:[f364<0.150123] yes=3,no=4,missing=3
		3:[f179<0.0792699] yes=5,no=6,missing=5
			5:[f615<0.169442] yes=9,no=10,missing=9
				9:[f215<0.0615993] yes=11,no=12,missing=11
					11:[f347<0.0804146] yes=13,no=14,missing=13
						13:leaf=0.00376372
						14:leaf=0.137745
					12:leaf=0.14077
				10:leaf=-0.117771
			6:leaf=0.206975
		4:[f33<0.27527] yes=7,no=8,missing=7
			7:leaf=-0.129994
			8:leaf=0.0305335
	2:leaf=0.221805
booster[50]:
0:[f364<0.425609] yes=1,no=2,missing=1
	1:[f364<0.150123] yes=3,no=4,missing=3
		3:[f338<0.0511847] yes=5,no=6,missing=5
			5:[f36<0.0416819] yes=9,no=10,missing=9
				9:[f336<0.0597791] yes=13,no=14,missing=13
					13:[f713<0.0982351] yes=17,no=18,missing=17
						17:leaf=0.0116296
						18:leaf=-0.174473
					14:[f336<0.270502] yes=19,no=20,missing=19
						19:leaf=-0.179753
						20:leaf=-0.0259545
				10:[f478<0.208604] yes=15,no=16,missing=15
					15:[f34<0.211718] yes=21,no=22,missing=21
						21:leaf=-0.125081
						22:leaf=-0.0323596
					16:[f33<0.212506] yes=23,no=24,missing=23
						23:leaf=-0.0453831
						24:leaf=0.059612
			6:leaf=-0.205732
		4:[f33<0.27527] yes=7,no=8,missing=7
			7:[f752<0.141602] yes=11,no=12,missing=11
				11:leaf=0.13102
				12:leaf=0.031938
			8:leaf=-0.0258268
	2:leaf=-0.214436
booster[51]:
0:[f364<0.425609] yes=1,no=2,missing=1
	1:[f364<0.150123] yes=3,no=4,missing=3
		3:[f338<0.0511847] yes=5,no=6,missing=5
			5:[f36<0.0416819] yes=9,no=10,missing=9
				9:[f336<0.0597791] yes=13,no=14,missing=13
					13:[f713<0.0982351] yes=17,no=18,missing=17
						17:leaf=-0.0116296
						18:leaf=0.174473
					14:[f336<0.270502] yes=19,no=20,missing=19
						19:leaf=0.179753
						20:leaf=0.0259546
				10:[f478<0.208604] yes=15,no=16,missing=15
					15:[f34<0.211718] yes=21,no=22,missing=21
						21:leaf=0.125081
						22:leaf=0.0323596
					16:[f33<0.212506] yes=23,no=24,missing=23
						23:leaf=0.0453831
						24:leaf=-0.059612
			6:leaf=0.205732
		4:[f33<0.27527] yes=7,no=8,missing=7
			7:[f752<0.141602] yes=11,no=12,missing=11
				11:leaf=-0.13102
				12:leaf=-0.0319381
			8:leaf=0.0258268
	2:leaf=0.214436
booster[52]:
0:[f538<0.179839] yes=1,no=2,missing=1
	1:[f947<0.040444] yes=3,no=4,missing=3
		3:[f40<0.0892215] yes=5,no=6,missing=5
			5:[f514<0.05601] yes=9,no=10,missing=9
				9:[f37<0.0319821] yes=11,no=12,missing=11
					11:[f347<0.0630771] yes=13,no=14,missing=13
						13:leaf=0.0132849
						14:leaf=-0.132668
					12:leaf=-0.137166
				10:leaf=-0.145508
			6:leaf=-0.202106
		4:[f947<0.260872] yes=7,no=8,missing=7
			7:leaf=-0.203542
			8:leaf=-0.0333524
	2:leaf=0.125548
booster[53]:
0:[f538<0.179839] yes=1,no=2,missing=1
	1:[f947<0.040444] yes=3,no=4,missing=3
		3:[f40<0.0892215] yes=5,no=6,missing=5
			5:[f514<0.05601] yes=9,no=10,missing=9
				9:[f37<0.0319821] yes=11,no=12,missing=11
					11:[f347<0.0630771] yes=13,no=14,missing=13
						13:leaf=-0.0132847
						14:leaf=0.132668
					12:leaf=0.137166
				10:leaf=0.145508
			6:leaf=0.202106
		4:[f947<0.260872] yes=7,no=8,missing=7
			7:leaf=0.203542
			8:leaf=0.0333524
	2:leaf=-0.125548
booster[54]:
0:[f643<0.0753863] yes=1,no=2,missing=1
	1:[f782<0.0508659] yes=3,no=4,missing=3
		3:[f406<0.157962] yes=5,no=6,missing=5
			5:[f41<0.0269756] yes=7,no=8,missing=7
				7:[f895<0.0851268] yes=9,no=10,missing=9
					9:[f42<0.377133] yes=13,no=14,missing=13
						13:leaf=0.0202689
						14:leaf=-0.144376
					10:leaf=-0.163708
				8:[f41<0.34092] yes=11,no=12,missing=11
					11:leaf=-0.141907
					12:[f41<0.464407] yes=15,no=16,missing=15
						15:leaf=0.0525362
						16:leaf=-0.0662385
			6:leaf=-0.197337
		4:leaf=-0.178842
	2:leaf=-0.199456
booster[55]:
0:[f643<0.0753863] yes=1,no=2,missing=1
	1:[f782<0.0508659] yes=3,no=4,missing=3
		3:[f406<0.157962] yes=5,no=6,missing=5
			5:[f41<0.0269756] yes=7,no=8,missing=7
				7:[f895<0.0851268] yes=9,no=10,missing=9
					9:[f42<0.377133] yes=13,no=14,missing=13
						13:leaf=-0.0202687
						14:leaf=0.144376
					10:leaf=0.163708
				8:[f41<0.34092] yes=11,no=12,missing=11
					11:leaf=0.141907
					12:[f41<0.464407] yes=15,no=16,missing=15
						15:leaf=-0.0525362
						16:leaf=0.0662386
			6:leaf=0.197337
		4:leaf=0.178842
	2:leaf=0.199456
booster[56]:
0:[f752<0.139775] yes=1,no=2,missing=1
	1:[f364<0.44219] yes=3,no=4,missing=3
		3:[f364<0.150123] yes=7,no=8,missing=7
			7:[f307<0.0652653] yes=11,no=12,missing=11
				11:[f872<0.23661] yes=15,no=16,missing=15
					15:[f198<0.113289] yes=19,no=20,missing=19
						19:leaf=-0.00444535
						20:leaf=-0.181774
					16:leaf=-0.191432
				12:[f307<0.256519] yes=17,no=18,missing=17
					17:leaf=-0.240366
					18:leaf=0.0661672
			8:[f33<0.253376] yes=13,no=14,missing=13
				13:leaf=0.122075
				14:leaf=-0.000412391
		4:leaf=-0.215564
	2:[f513<0.0499019] yes=5,no=6,missing=5
		5:[f34<0.0428025] yes=9,no=10,missing=9
			9:leaf=0.0937569
			10:leaf=-0.00967709
		6:leaf=-0.0617079
booster[57]:
0:[f752<0.139775] yes=1,no=2,missing=1
	1:[f364<0.44219] yes=3,no=4,missing=3
		3:[f364<0.150123] yes=7,no=8,missing=7
			7:[f307<0.0652653] yes=11,no=12,missing=11
				11:[f872<0.23661] yes=15,no=16,missing=15
					15:[f198<0.113289] yes=19,no=20,missing=19
						19:leaf=0.00444528
						20:leaf=0.181774
					16:leaf=0.191432
				12:[f307<0.256519] yes=17,no=18,missing=17
					17:leaf=0.240366
					18:leaf=-0.0661672
			8:[f33<0.253376] yes=13,no=14,missing=13
				13:leaf=-0.122075
				14:leaf=0.000412407
		4:leaf=0.215564
	2:[f513<0.0499019] yes=5,no=6,missing=5
		5:[f34<0.0428025] yes=9,no=10,missing=9
			9:leaf=-0.0937569
			10:leaf=0.00967703
		6:leaf=0.0617079
booster[58]:
0:[f208<0.0460061] yes=1,no=2,missing=1
	1:[f437<0.0729361] yes=3,no=4,missing=3
		3:[f905<0.118721] yes=5,no=6,missing=5
			5:[f741<0.0842255] yes=7,no=8,missing=7
				7:[f589<0.0616678] yes=9,no=10,missing=9
					9:[f670<0.0544027] yes=11,no=12,missing=11
						11:leaf=0.0191108
						12:leaf=-0.137536
					10:[f589<0.273604] yes=13,no=14,missing=13
						13:leaf=-0.1242
						14:leaf=-0.0483762
				8:leaf=-0.158981
			6:leaf=-0.18353
		4:leaf=-0.151444
	2:leaf=-0.185782
booster[59]:
0:[f208<0.0460061] yes=1,no=2,missing=1
	1:[f437<0.0729361] yes=3,no=4,missing=3
		3:[f905<0.118721] yes=5,no=6,missing=5
			5:[f741<0.0842255] yes=7,no=8,missing=7
				7:[f589<0.0616678] yes=9,no=10,missing=9
					9:[f670<0.0544027] yes=11,no=12,missing=11
						11:leaf=-0.0191106
						12:leaf=0.137536
					10:[f589<0.273604] yes=13,no=14,missing=13
						13:leaf=0.1242
						14:leaf=0.0483762
				8:leaf=0.158981
			6:leaf=0.18353
		4:leaf=0.151444
	2:leaf=0.185782
booster[60]:
0:[f439<0.38964] yes=1,no=2,missing=1
	1:[f485<0.0818809] yes=3,no=4,missing=3
		3:[f179<0.0792699] yes=5,no=6,missing=5
			5:[f640<0.0629316] yes=7,no=8,missing=7
				7:[f0<0.0460559] yes=9,no=10,missing=9
					9:[f306<0.0415673] yes=11,no=12,missing=11
						11:leaf=0.0161922
						12:leaf=-0.113621
					10:leaf=-0.135934
				8:leaf=-0.133412
			6:leaf=-0.180461
		4:leaf=-0.181499
	2:leaf=-0.190347
booster[61]:
0:[f439<0.38964] yes=1,no=2,missing=1
	1:[f485<0.0818809] yes=3,no=4,missing=3
		3:[f179<0.0792699] yes=5,no=6,missing=5
			5:[f640<0.0629316] yes=7,no=8,missing=7
				7:[f0<0.0460559] yes=9,no=10,missing=9
					9:[f306<0.0415673] yes=11,no=12,missing=11
						11:leaf=-0.0161923
						12:leaf=0.113621
					10:leaf=0.135934
				8:leaf=0.133411
			6:leaf=0.180461
		4:leaf=0.181499
	2:leaf=0.190347
booster[62]:
0:[f274<0.104276] yes=1,no=2,missing=1
	1:[f364<0.44219] yes=3,no=4,missing=3
		3:[f513<0.0258393] yes=5,no=6,missing=5
			5:[f307<0.127638] yes=7,no=8,missing=7
				7:[f643<0.0753863] yes=11,no=12,missing=11
					11:[f557<0.0560018] yes=15,no=16,missing=15
						15:leaf=0.0110757
						16:leaf=-0.12289
					12:leaf=-0.173498
				8:[f307<0.253842] yes=13,no=14,missing=13
					13:leaf=-0.197384
					14:leaf=0.0598696
			6:[f513<0.370804] yes=9,no=10,missing=9
				9:leaf=-0.143116
				10:leaf=-0.00815558
		4:leaf=-0.207037
	2:leaf=0.121236
booster[63]:
0:[f274<0.104276] yes=1,no=2,missing=1
	1:[f364<0.44219] yes=3,no=4,missing=3
		3:[f513<0.0258393] yes=5,no=6,missing=5
			5:[f307<0.127638] yes=7,no=8,missing=7
				7:[f643<0.0753863] yes=11,no=12,missing=11
					11:[f557<0.0560018] yes=15,no=16,missing=15
						15:leaf=-0.0110757
						16:leaf=0.12289
					12:leaf=0.173498
				8:[f307<0.253842] yes=13,no=14,missing=13
					13:leaf=0.197384
					14:leaf=-0.0598696
			6:[f513<0.370804] yes=9,no=10,missing=9
				9:leaf=0.143116
				10:leaf=0.0081556
		4:leaf=0.207037
	2:leaf=-0.121236
booster[64]:
0:[f121<0.161653] yes=1,no=2,missing=1
	1:[f335<0.21076] yes=3,no=4,missing=3
		3:[f962<0.147171] yes=5,no=6,missing=5
			5:[f274<0.104276] yes=7,no=8,missing=7
				7:[f105<0.204109] yes=9,no=10,missing=9
					9:[f538<0.179839] yes=11,no=12,missing=11
						11:leaf=-0.029122
						12:leaf=0.10841
					10:leaf=0.106805
				8:leaf=0.111641
			6:leaf=0.107191
		4:leaf=0.108172
	2:leaf=0.113107
booster[65]:
0:[f121<0.161653] yes=1,no=2,missing=1
	1:[f335<0.21076] yes=3,no=4,missing=3
		3:[f962<0.147171] yes=5,no=6,missing=5
			5:[f274<0.104276] yes=7,no=8,missing=7
				7:[f105<0.204109] yes=9,no=10,missing=9
					9:[f538<0.179839] yes=11,no=12,missing=11
						11:leaf=0.0291222
						12:leaf=-0.10841
					10:leaf=-0.106805
				8:leaf=-0.111641
			6:leaf=-0.107191
		4:leaf=-0.108172
	2:leaf=-0.113107
booster[66]:
0:[f514<0.05601] yes=1,no=2,missing=1
	1:[f37<0.0319821] yes=3,no=4,missing=3
		3:[f42<0.377133] yes=5,no=6,missing=5
			5:[f208<0.0460061] yes=7,no=8,missing=7
				7:[f853<0.101734] yes=9,no=10,missing=9
					9:[f41<0.040866] yes=11,no=12,missing=11
						11:leaf=0.0218893
						12:leaf=-0.0806371
					10:leaf=-0.12353
				8:leaf=-0.167012
			6:leaf=-0.130456
		4:leaf=-0.123166
	2:leaf=-0.133946
booster[67]:
0:[f514<0.05601] yes=1,no=2,missing=1
	1:[f37<0.0319821] yes=3,no=4,missing=3
		3:[f42<0.377133] yes=5,no=6,missing=5
			5:[f208<0.0460061] yes=7,no=8,missing=7
				7:[f853<0.101734] yes=9,no=10,missing=9
					9:[f41<0.040866] yes=11,no=12,missing=11
						11:leaf=-0.0218891
						12:leaf=0.0806371
					10:leaf=0.12353
				8:leaf=0.167012
			6:leaf=0.130456
		4:leaf=0.123166
	2:leaf=0.133946
booster[68]:
0:[f164<0.0439289] yes=1,no=2,missing=1
	1:[f198<0.113289] yes=3,no=4,missing=3
		3:[f215<0.0615993] yes=5,no=6,missing=5
			5:[f439<0.38964] yes=7,no=8,missing=7
				7:[f197<0.0241399] yes=11,no=12,missing=11
					11:[f167<0.0921859] yes=13,no=14,missing=13
						13:leaf=0.0202374
						14:leaf=-0.14413
					12:[f197<0.206243] yes=15,no=16,missing=15
						15:leaf=-0.126468
						16:leaf=-0.0356144
				8:leaf=-0.159627
			6:[f752<0.0640176] yes=9,no=10,missing=9
				9:leaf=-0.119888
				10:leaf=-0.0299492
		4:leaf=-0.155116
	2:leaf=-0.129923
booster[69]:
0:[f164<0.0439289] yes=1,no=2,missing=1
	1:[f198<0.113289] yes=3,no=4,missing=3
		3:[f215<0.0615993] yes=5,no=6,missing=5
			5:[f439<0.38964] yes=7,no=8,missing=7
				7:[f197<0.0241399] yes=11,no=12,missing=11
					11:[f167<0.0921859] yes=13,no=14,missing=13
						13:leaf=-0.0202372
						14:leaf=0.14413
					12:[f197<0.206243] yes=15,no=16,missing=15
						15:leaf=0.126468
						16:leaf=0.0356144
				8:leaf=0.159627
			6:[f752<0.0640176] yes=9,no=10,missing=9
				9:leaf=0.119888
				10:leaf=0.0299493
		4:leaf=0.155116
	2:leaf=0.129923
booster[70]:
0:[f990<0.0478372] yes=1,no=2,missing=1
	1:[f199<0.052998] yes=3,no=4,missing=3
		3:[f571<0.182631] yes=5,no=6,missing=5
			5:[f872<0.216882] yes=7,no=8,missing=7
				7:[f713<0.0329908] yes=9,no=10,missing=9
					9:[f643<0.0753863] yes=11,no=12,missing=11
						11:leaf=0.0147497
						12:leaf=-0.147801
					10:leaf=-0.141593
				8:leaf=-0.140569
			6:leaf=-0.128135
		4:leaf=-0.145214
	2:leaf=-0.138723
booster[71]:
0:[f990<0.0478372] yes=1,no=2,missing=1
	1:[f199<0.052998] yes=3,no=4,missing=3
		3:[f571<0.182631] yes=5,no=6,missing=5
			5:[f872<0.216882] yes=7,no=8,missing=7
				7:[f713<0.0329908] yes=9,no=10,missing=9
					9:[f643<0.0753863] yes=11,no=12,missing=11
						11:leaf=-0.0147498
						12:leaf=0.147801
					10:leaf=0.141593
				8:leaf=0.140569
			6:leaf=0.128135
		4:leaf=0.145214
	2:leaf=0.138723
booster[72]:
0:[f437<0.0729361] yes=1,no=2,missing=1
	1:[f338<0.106559] yes=3,no=4,missing=3
		3:[f636<0.020351] yes=5,no=6,missing=5
			5:[f364<0.44219] yes=7,no=8,missing=7
				7:[f34<0.198268] yes=11,no=12,missing=11
					11:[f439<0.38964] yes=17,no=18,missing=17
						17:leaf=0.0246205
						18:leaf=-0.161449
					12:[f478<0.0614633] yes=19,no=20,missing=19
						19:leaf=-0.0175121
						20:leaf=-0.159011
				8:leaf=-0.147156
			6:[f752<0.0934032] yes=9,no=10,missing=9
				9:[f636<0.254521] yes=13,no=14,missing=13
					13:leaf=-0.105107
					14:[f636<0.416264] yes=21,no=22,missing=21
						21:leaf=0.0711348
						22:leaf=-0.115972
				10:[f636<0.263485] yes=15,no=16,missing=15
					15:leaf=0.054391
					16:leaf=-0.0294044
		4:leaf=-0.144107
	2:leaf=-0.133011
booster[73]:
0:[f437<0.0729361] yes=1,no=2,missing=1
	1:[f338<0.106559] yes=3,no=4,missing=3
		3:[f636<0.020351] yes=5,no=6,missing=5
			5:[f364<0.44219] yes=7,no=8,missing=7
				7:[f34<0.198268] yes=11,no=12,missing=11
					11:[f439<0.38964] yes=17,no=18,missing=17
						17:leaf=-0.0246204
						18:leaf=0.161449
					12:[f478<0.0614633] yes=19,no=20,missing=19
						19:leaf=0.0175121
						20:leaf=0.159011
				8:leaf=0.147156
			6:[f752<0.0934032] yes=9,no=10,missing=9
				9:[f636<0.254521] yes=13,no=14,missing=13
					13:leaf=0.105107
					14:[f636<0.416264] yes=21,no=22,missing=21
						21:leaf=-0.0711349
						22:leaf=0.115972
				10:[f636<0.263485] yes=15,no=16,missing=15
					15:leaf=-0.054391
					16:leaf=0.0294044
		4:leaf=0.144107
	2:leaf=0.133011
booster[74]:
0:[f566<0.110394] yes=1,no=2,missing=1
	1:[f615<0.168017] yes=3,no=4,missing=3
		3:[f513<0.0258393] yes=5,no=6,missing=5
			5:[f752<0.106059] yes=7,no=8,missing=7
				7:[f307<0.0652653] yes=11,no=12,missing=11
					11:[f42<0.377133] yes=15,no=16,missing=15
						15:leaf=-0.00408857
						16:leaf=-0.123505
					12:[f307<0.210826] yes=17,no=18,missing=17
						17:leaf=-0.179409
						18:leaf=0.00317473
				8:[f36<0.0501297] yes=13,no=14,missing=13
					13:[f840<0.107844] yes=19,no=20,missing=19
						19:leaf=0.0941557
						20:leaf=-0.0562177
					14:leaf=-0.0710217
			6:[f513<0.339609] yes=9,no=10,missing=9
				9:leaf=-0.131308
				10:leaf=-0.0100898
		4:leaf=0.107201
	2:leaf=-0.143575
booster[75]:
0:[f566<0.110394] yes=1,no=2,missing=1
	1:[f615<0.168017] yes=3,no=4,missing=3
		3:[f513<0.0258393] yes=5,no=6,missing=5
			5:[f752<0.106059] yes=7,no=8,missing=7
				7:[f307<0.0652653] yes=11,no=12,missing=11
					11:[f42<0.377133] yes=15,no=16,missing=15
						15:leaf=0.00408876
						16:leaf=0.123505
					12:[f307<0.210826] yes=17,no=18,missing=17
						17:leaf=0.179409
						18:leaf=-0.00317473
				8:[f36<0.0501297] yes=13,no=14,missing=13
					13:[f840<0.107844] yes=19,no=20,missing=19
						19:leaf=-0.0941556
						20:leaf=0.0562177
					14:leaf=0.0710217
			6:[f513<0.339609] yes=9,no=10,missing=9
				9:leaf=0.131308
				10:leaf=0.0100898
		4:leaf=-0.107201
	2:leaf=0.143575
booster[76]:
0:[f745<0.0435457] yes=1,no=2,missing=1
	1:[f905<0.118721] yes=3,no=4,missing=3
		3:[f198<0.113289] yes=5,no=6,missing=5
			5:[f947<0.040444] yes=7,no=8,missing=7
				7:[f347<0.0630771] yes=9,no=10,missing=9
					9:[f557<0.0560018] yes=13,no=14,missing=13
						13:leaf=0.0170559
						14:leaf=-0.128894
					10:[f491<0.199129] yes=15,no=16,missing=15
						15:leaf=-0.174464
						16:leaf=0.0333988
				8:[f947<0.259812] yes=11,no=12,missing=11
					11:leaf=-0.172893
					12:leaf=0.00648108
			6:leaf=-0.140452
		4:leaf=-0.14809
	2:leaf=-0.106925
booster[77]:
0:[f745<0.0435457] yes=1,no=2,missing=1
	1:[f905<0.118721] yes=3,no=4,missing=3
		3:[f198<0.113289] yes=5,no=6,missing=5
			5:[f947<0.040444] yes=7,no=8,missing=7
				7:[f347<0.0630771] yes=9,no=10,missing=9
					9:[f557<0.0560018] yes=13,no=14,missing=13
						13:leaf=-0.017056
						14:leaf=0.128894
					10:[f491<0.199129] yes=15,no=16,missing=15
						15:leaf=0.174464
						16:leaf=-0.0333988
				8:[f947<0.259812] yes=11,no=12,missing=11
					11:leaf=0.172893
					12:leaf=-0.00648109
			6:leaf=0.140452
		4:leaf=0.14809
	2:leaf=0.106925
booster[78]:
0:[f35<0.0402058] yes=1,no=2,missing=1
	1:[f782<0.0508659] yes=3,no=4,missing=3
		3:[f379<0.253297] yes=7,no=8,missing=7
			7:[f772<0.102289] yes=13,no=14,missing=13
				13:[f34<0.0350152] yes=19,no=20,missing=19
					19:[f42<0.377133] yes=21,no=22,missing=21
						21:leaf=0.0223756
						22:leaf=-0.11357
					20:[f635<0.195586] yes=23,no=24,missing=23
						23:leaf=-0.0753805
						24:leaf=0.0440232
				14:leaf=-0.130676
			8:leaf=-0.133124
		4:leaf=-0.13165
	2:[f35<0.298366] yes=5,no=6,missing=5
		5:[f35<0.242622] yes=9,no=10,missing=9
			9:[f35<0.201019] yes=15,no=16,missing=15
				15:leaf=-0.098669
				16:leaf=0.0394577
			10:leaf=-0.133904
		6:[f35<0.456508] yes=11,no=12,missing=11
			11:[f35<0.357622] yes=17,no=18,missing=17
				17:leaf=-0.0238191
				18:leaf=0.0875764
			12:leaf=-0.0828564
booster[79]:
0:[f35<0.0402058] yes=1,no=2,missing=1
	1:[f782<0.0508659] yes=3,no=4,missing=3
		3:[f379<0.253297] yes=7,no=8,missing=7
			7:[f772<0.102289] yes=13,no=14,missing=13
				13:[f34<0.0350152] yes=19,no=20,missing=19
					19:[f42<0.377133] yes=21,no=22,missing=21
						21:leaf=-0.0223756
						22:leaf=0.11357
					20:[f635<0.195586] yes=23,no=24,missing=23
						23:leaf=0.0753805
						24:leaf=-0.0440232
				14:leaf=0.130676
			8:leaf=0.133124
		4:leaf=0.13165
	2:[f35<0.298366] yes=5,no=6,missing=5
		5:[f35<0.242622] yes=9,no=10,missing=9
			9:[f35<0.201019] yes=15,no=16,missing=15
				15:leaf=0.0986689
				16:leaf=-0.0394577
			10:leaf=0.133904
		6:[f35<0.456508] yes=11,no=12,missing=11
			11:[f35<0.357622] yes=17,no=18,missing=17
				17:leaf=0.0238191
				18:leaf=-0.0875764
			12:leaf=0.0828564
booster[80]:
0:[f164<0.0439289] yes=1,no=2,missing=1
	1:[f514<0.05601] yes=3,no=4,missing=3
		3:[f0<0.0460559] yes=5,no=6,missing=5
			5:[f984<0.0804146] yes=7,no=8,missing=7
				7:[f528<0.225281] yes=9,no=10,missing=9
					9:[f872<0.216882] yes=11,no=12,missing=11
						11:leaf=0.00589517
						12:leaf=-0.126112
					10:leaf=0.111545
				8:leaf=-0.106446
			6:leaf=-0.114955
		4:leaf=-0.124109
	2:leaf=-0.122044
booster[81]:
0:[f164<0.0439289] yes=1,no=2,missing=1
	1:[f514<0.05601] yes=3,no=4,missing=3
		3:[f0<0.0460559] yes=5,no=6,missing=5
			5:[f984<0.0804146] yes=7,no=8,missing=7
				7:[f528<0.225281] yes=9,no=10,missing=9
					9:[f872<0.216882] yes=11,no=12,missing=11
						11:leaf=-0.00589516
						12:leaf=0.126112
					10:leaf=-0.111545
				8:leaf=0.106446
			6:leaf=0.114955
		4:leaf=0.124109
	2:leaf=0.122044
booster[82]:
0:[f150<0.205247] yes=1,no=2,missing=1
	1:[f446<0.208114] yes=3,no=4,missing=3
		3:[f35<0.226079] yes=5,no=6,missing=5
			5:[f478<0.428987] yes=7,no=8,missing=7
				7:[f600<0.124682] yes=11,no=12,missing=11
					11:[f697<0.0596294] yes=13,no=14,missing=13
						13:leaf=0.00429115
						14:leaf=-0.0791834
					12:leaf=-0.136511
				8:leaf=-0.138727
			6:[f34<0.164987] yes=9,no=10,missing=9
				9:leaf=-0.101215
				10:leaf=-0.0220848
		4:leaf=0.104513
	2:leaf=0.108562
booster[83]:
0:[f150<0.205247] yes=1,no=2,missing=1
	1:[f446<0.208114] yes=3,no=4,missing=3
		3:[f35<0.226079] yes=5,no=6,missing=5
			5:[f478<0.428987] yes=7,no=8,missing=7
				7:[f600<0.124682] yes=11,no=12,missing=11
					11:[f697<0.0596294] yes=13,no=14,missing=13
						13:leaf=-0.00429101
						14:leaf=0.0791834
					12:leaf=0.136511
				8:leaf=0.138727
			6:[f34<0.164987] yes=9,no=10,missing=9
				9:leaf=0.101215
				10:leaf=0.0220848
		4:leaf=-0.104513
	2:leaf=-0.108562
booster[84]:
0:[f870<0.113942] yes=1,no=2,missing=1
	1:[f364<0.444191] yes=3,no=4,missing=3
		3:[f364<0.302322] yes=5,no=6,missing=5
			5:[f121<0.161653] yes=7,no=8,missing=7
				7:[f179<0.0792699] yes=9,no=10,missing=9
					9:[f615<0.168017] yes=11,no=12,missing=11
						11:leaf=-0.0112561
						12:leaf=0.0972136
					10:leaf=-0.130856
				8:leaf=0.097918
			6:leaf=-0.217691
		4:leaf=0.104908
	2:leaf=0.10395
booster[85]:
0:[f870<0.113942] yes=1,no=2,missing=1
	1:[f364<0.444191] yes=3,no=4,missing=3
		3:[f364<0.302322] yes=5,no=6,missing=5
			5:[f121<0.161653] yes=7,no=8,missing=7
				7:[f179<0.0792699] yes=9,no=10,missing=9
					9:[f615<0.168017] yes=11,no=12,missing=11
						11:leaf=0.0112561
						12:leaf=-0.0972136
					10:leaf=0.130856
				8:leaf=-0.0979177
			6:leaf=0.217692
		4:leaf=-0.104908
	2:leaf=-0.10395
booster[86]:
0:[f568<0.0657849] yes=1,no=2,missing=1
	1:[f853<0.101734] yes=3,no=4,missing=3
		3:[f198<0.113289] yes=5,no=6,missing=5
			5:[f199<0.052998] yes=7,no=8,missing=7
				7:[f713<0.0329908] yes=9,no=10,missing=9
					9:[f364<0.44219] yes=11,no=12,missing=11
						11:leaf=0.0152651
						12:leaf=-0.102308
					10:leaf=-0.117504
				8:leaf=-0.118883
			6:leaf=-0.125824
		4:leaf=-0.109208
	2:leaf=-0.105061
booster[87]:
0:[f568<0.0657849] yes=1,no=2,missing=1
	1:[f853<0.101734] yes=3,no=4,missing=3
		3:[f198<0.113289] yes=5,no=6,missing=5
			5:[f199<0.052998] yes=7,no=8,missing=7
				7:[f713<0.0329908] yes=9,no=10,missing=9
					9:[f364<0.44219] yes=11,no=12,missing=11
						11:leaf=-0.0152651
						12:leaf=0.102308
					10:leaf=0.117504
				8:leaf=0.118883
			6:leaf=0.125824
		4:leaf=0.109208
	2:leaf=0.105061
booster[88]:
0:[f364<0.444191] yes=1,no=2,missing=1
	1:[f364<0.36949] yes=3,no=4,missing=3
		3:[f364<0.150123] yes=5,no=6,missing=5
			5:[f311<0.159809] yes=7,no=8,missing=7
				7:[f636<0.418572] yes=11,no=12,missing=11
					11:[f37<0.0319821] yes=15,no=16,missing=15
						15:leaf=0.00412051
						16:leaf=-0.10566
					12:leaf=-0.105987
				8:[f311<0.300421] yes=13,no=14,missing=13
					13:leaf=-0.130566
					14:leaf=0.00399172
			6:[f33<0.0420484] yes=9,no=10,missing=9
				9:leaf=0.101149
				10:leaf=0.0234418
		4:leaf=-0.215875
	2:leaf=0.104696
booster[89]:
0:[f364<0.444191] yes=1,no=2,missing=1
	1:[f364<0.36949] yes=3,no=4,missing=3
		3:[f364<0.150123] yes=5,no=6,missing=5
			5:[f311<0.159809] yes=7,no=8,missing=7
				7:[f636<0.418572] yes=11,no=12,missing=11
					11:[f37<0.0319821] yes=15,no=16,missing=15
						15:leaf=-0.0041208
						16:leaf=0.10566
					12:leaf=0.105987
				8:[f311<0.300421] yes=13,no=14,missing=13
					13:leaf=0.130565
					14:leaf=-0.00399177
			6:[f33<0.0420484] yes=9,no=10,missing=9
				9:leaf=-0.101149
				10:leaf=-0.0234418
		4:leaf=0.215875
	2:leaf=-0.104696
booster[90]:
0:[f905<0.118721] yes=1,no=2,missing=1
	1:[f741<0.0842255] yes=3,no=4,missing=3
		3:[f335<0.1707] yes=5,no=6,missing=5
			5:[f947<0.040444] yes=7,no=8,missing=7
				7:[f347<0.0630771] yes=9,no=10,missing=9
					9:[f589<0.0616678] yes=13,no=14,missing=13
						13:leaf=0.0109202
						14:leaf=-0.0836061
					10:[f491<0.191026] yes=15,no=16,missing=15
						15:leaf=-0.133755
						16:leaf=0.00208349
				8:[f947<0.260872] yes=11,no=12,missing=11
					11:leaf=-0.162782
					12:leaf=0.0047225
			6:leaf=0.10018
		4:leaf=-0.108651
	2:leaf=-0.126908
booster[91]:
0:[f905<0.118721] yes=1,no=2,missing=1
	1:[f741<0.0842255] yes=3,no=4,missing=3
		3:[f335<0.1707] yes=5,no=6,missing=5
			5:[f947<0.040444] yes=7,no=8,missing=7
				7:[f347<0.0630771] yes=9,no=10,missing=9
					9:[f589<0.0616678] yes=13,no=14,missing=13
						13:leaf=-0.0109202
						14:leaf=0.0836061
					10:[f491<0.191026] yes=15,no=16,missing=15
						15:leaf=0.133755
						16:leaf=-0.00208348
				8:[f947<0.260872] yes=11,no=12,missing=11
					11:leaf=0.162782
					12:leaf=-0.00472244
			6:leaf=-0.10018
		4:leaf=0.108651
	2:leaf=0.126908
booster[92]:
0:[f538<0.179839] yes=1,no=2,missing=1
	1:[f947<0.040444] yes=3,no=4,missing=3
		3:[f514<0.05601] yes=5,no=6,missing=5
			5:[f164<0.0503949] yes=7,no=8,missing=7
				7:[f42<0.377133] yes=9,no=10,missing=9
					9:[f0<0.0668666] yes=11,no=12,missing=11
						11:leaf=0.00848303
						12:leaf=-0.105218
					10:leaf=-0.106021
				8:leaf=-0.110786
			6:leaf=-0.112737
		4:leaf=-0.108047
	2:leaf=0.0992151
booster[93]:
0:[f538<0.179839] yes=1,no=2,missing=1
	1:[f947<0.040444] yes=3,no=4,missing=3
		3:[f514<0.05601] yes=5,no=6,missing=5
			5:[f164<0.0503949] yes=7,no=8,missing=7
				7:[f42<0.377133] yes=9,no=10,missing=9
					9:[f0<0.0668666] yes=11,no=12,missing=11
						11:leaf=-0.00848296
						12:leaf=0.105218
					10:leaf=0.106021
				8:leaf=0.110786
			6:leaf=0.112737
		4:leaf=0.108047
	2:leaf=-0.099215
booster[94]:
0:[f41<0.0269756] yes=1,no=2,missing=1
	1:[f895<0.0851268] yes=3,no=4,missing=3
		3:[f723<0.0515683] yes=7,no=8,missing=7
			7:[f643<0.0753863] yes=11,no=12,missing=11
				11:[f215<0.067777] yes=13,no=14,missing=13
					13:[f798<0.0476034] yes=15,no=16,missing=15
						15:leaf=0.0187941
						16:leaf=-0.0614423
					14:leaf=-0.083479
				12:leaf=-0.118782
			8:leaf=-0.111064
		4:leaf=-0.116082
	2:[f41<0.34092] yes=5,no=6,missing=5
		5:leaf=-0.119014
		6:[f41<0.464407] yes=9,no=10,missing=9
			9:leaf=0.0473118
			10:leaf=-0.0485368
booster[95]:
0:[f41<0.0269756] yes=1,no=2,missing=1
	1:[f895<0.0851268] yes=3,no=4,missing=3
		3:[f723<0.0515683] yes=7,no=8,missing=7
			7:[f643<0.0753863] yes=11,no=12,missing=11
				11:[f215<0.067777] yes=13,no=14,missing=13
					13:[f798<0.0476034] yes=15,no=16,missing=15
						15:leaf=-0.0187939
						16:leaf=0.0614424
					14:leaf=0.083479
				12:leaf=0.118782
			8:leaf=0.111064
		4:leaf=0.116082
	2:[f41<0.34092] yes=5,no=6,missing=5
		5:leaf=0.119014
		6:[f41<0.464407] yes=9,no=10,missing=9
			9:leaf=-0.0473118
			10:leaf=0.0485368
booster[96]:
0:[f105<0.204109] yes=1,no=2,missing=1
	1:[f197<0.0241399] yes=3,no=4,missing=3
		3:[f338<0.106559] yes=5,no=6,missing=5
			5:[f478<0.428987] yes=9,no=10,missing=9
				9:[f316<0.112547] yes=13,no=14,missing=13
					13:[f566<0.110394] yes=15,no=16,missing=15
						15:leaf=0.00805841
						16:leaf=-0.111472
					14:leaf=-0.110812
				10:leaf=-0.115849
			6:leaf=-0.116721
		4:[f197<0.278263] yes=7,no=8,missing=7
			7:[f34<0.128564] yes=11,no=12,missing=11
				11:leaf=-0.0288396
				12:leaf=-0.116868
			8:leaf=-0.005834
	2:leaf=0.0931714
booster[97]:
0:[f105<0.204109] yes=1,no=2,missing=1
	1:[f197<0.0241399] yes=3,no=4,missing=3
		3:[f338<0.106559] yes=5,no=6,missing=5
			5:[f478<0.428987] yes=9,no=10,missing=9
				9:[f316<0.112547] yes=13,no=14,missing=13
					13:[f566<0.110394] yes=15,no=16,missing=15
						15:leaf=-0.00805849
						16:leaf=0.111472
					14:leaf=0.110812
				10:leaf=0.115849
			6:leaf=0.116721
		4:[f197<0.278263] yes=7,no=8,missing=7
			7:[f34<0.128564] yes=11,no=12,missing=11
				11:leaf=0.0288396
				12:leaf=0.116868
			8:leaf=0.00583401
	2:leaf=-0.0931715
booster[98]:
0:[f870<0.113942] yes=1,no=2,missing=1
	1:[f446<0.208114] yes=3,no=4,missing=3
		3:[f150<0.232402] yes=5,no=6,missing=5
			5:[f35<0.226079] yes=7,no=8,missing=7
				7:[f635<0.225606] yes=9,no=10,missing=9
					9:[f635<0.128325] yes=13,no=14,missing=13
						13:leaf=-0.00825038
						14:leaf=-0.101969
					10:[f33<0.403961] yes=15,no=16,missing=15
						15:leaf=0.0896998
						16:leaf=0.0217932
				8:[f35<0.318506] yes=11,no=12,missing=11
					11:leaf=-0.106074
					12:[f35<0.456508] yes=17,no=18,missing=17
						17:leaf=0.0427778
						18:leaf=-0.102822
			6:leaf=0.0951673
		4:leaf=0.0933858
	2:leaf=0.0941191
booster[99]:
0:[f870<0.113942] yes=1,no=2,missing=1
	1:[f446<0.208114] yes=3,no=4,missing=3
		3:[f150<0.232402] yes=5,no=6,missing=5
			5:[f35<0.226079] yes=7,no=8,missing=7
				7:[f635<0.225606] yes=9,no=10,missing=9
					9:[f635<0.128325] yes=13,no=14,missing=13
						13:leaf=0.00825036
						14:leaf=0.101969
					10:[f33<0.403961] yes=15,no=16,missing=15
						15:leaf=-0.0896998
						16:leaf=-0.0217932
				8:[f35<0.318506] yes=11,no=12,missing=11
					11:leaf=0.106074
					12:[f35<0.456508] yes=17,no=18,missing=17
						17:leaf=-0.0427778
						18:leaf=0.102822
			6:leaf=-0.0951672
		4:leaf=-0.0933857
	2:leaf=-0.0941192
